{"learner":{"attributes":{"best_iteration":"59","best_score":"0.684400770113591","scikit_learn":"{\"_estimator_type\": \"classifier\"}"},"feature_names":["Money","Job","Playtime_mins","JailTime","WL","Kills","Deaths","Bank_money"],"feature_types":["int","i","int","int","int","int","int","int"],"gradient_booster":{"model":{"gbtree_model_param":{"num_parallel_tree":"1","num_trees":"60"},"iteration_indptr":[0,1,2,3,4,5,6,7,8,9,10,11,12,13,14,15,16,17,18,19,20,21,22,23,24,25,26,27,28,29,30,31,32,33,34,35,36,37,38,39,40,41,42,43,44,45,46,47,48,49,50,51,52,53,54,55,56,57,58,59,60],"tree_info":[0,0,0,0,0,0,0,0,0,0,0,0,0,0,0,0,0,0,0,0,0,0,0,0,0,0,0,0,0,0,0,0,0,0,0,0,0,0,0,0,0,0,0,0,0,0,0,0,0,0,0,0,0,0,0,0,0,0,0,0],"trees":[{"base_weights":[3.6482932E-4,-2.696665E-1,1.0529377E0,-3.4213647E-1,8.8488585E-1,1.6526797E0,8.7726283E-1,2.5188777E-1,-5.1207274E-1,7.0550835E-1,1.394079E0,1.669676E0,-1.7604979E-2,4.2677012E-1,1.1115217E0,5.27617E-1,-6.793168E-1,-3.6674696E-1,-8.5696006E-1,3.728621E-1,9.638525E-1,-1.2061384E-2,1.4117421E0,1.703452E0,8.827635E-1,9.8409474E-1,7.643876E-2,9.2548484E-1,1.4054971E0,1.1888533E0,4.1468486E-1,-8.9127016E-1,-8.664039E-2,-4.1641998E-1,6.033767E-1,-1.0388409E0,-1.5712333E-1,4.703923E-1,-2.0056669E-2,1.2651954E0,5.8173466E-1,1.4295808E0,-1.2061384E-2,1.7213935E0,1.4244487E0,-1.9341214E-2,1.6134276E0,-1.9360827E-1,1.2449713E0,-6.399888E-1,2.629734E-1,1.4235278E0,7.300578E-1,2.649044E-1,1.4791884E0,1.23478705E-2,-1.8271474E-2,6.858622E-3,1.9439816E-3,-7.7869617E-3,-2.1318419E-2,2.370116E-3,-1.0029772E-2,3.060521E-3,-4.6413657E-3,3.6468762E-3,1.2701619E-2,-1.2547141E-2,-6.718278E-3,-9.015494E-3,2.6955812E-3,5.5947006E-3,-1.9783458E-2,1.29962135E-2,-1.5044061E-2,-1.9584432E-2,7.25481E-3,7.920112E-3,1.4834568E-2,1.7344618E-2,1.4386047E-2,1.5148642E-2,-1.30301565E-2,1.7725071E-2,1.0788534E-2,3.0425834E-3,-2.0486092E-2,1.2740362E-2,-1.630401E-2,1.7554677E-3,-1.6556919E-2,-2.0948049E-2,3.8145292E-3,1.4380575E-2,-1.30301565E-2,7.98827E-3,2.50727E-4,1.2744276E-2,-8.551038E-3,1.1601855E-2,1.5253349E-2],"categories":[],"categories_nodes":[],"categories_segments":[],"categories_sizes":[],"default_left":[0,0,0,0,0,0,0,0,0,0,0,0,0,0,0,0,0,0,0,0,0,0,0,0,0,0,0,0,0,0,0,0,0,0,0,0,0,0,0,0,0,0,0,0,0,0,0,0,0,0,0,0,0,0,0,0,0,0,0,0,0,0,0,0,0,0,0,0,0,0,0,0,0,0,0,0,0,0,0,0,0,0,0,0,0,0,0,0,0,0,0,0,0,0,0,0,0,0,0,0,0],"id":0,"left_children":[1,3,5,7,9,11,13,15,17,19,21,23,-1,25,27,29,31,33,35,37,39,-1,41,43,45,47,49,51,53,55,57,59,61,63,65,67,69,71,-1,73,75,77,-1,79,81,-1,83,85,87,89,91,93,95,97,99,-1,-1,-1,-1,-1,-1,-1,-1,-1,-1,-1,-1,-1,-1,-1,-1,-1,-1,-1,-1,-1,-1,-1,-1,-1,-1,-1,-1,-1,-1,-1,-1,-1,-1,-1,-1,-1,-1,-1,-1,-1,-1,-1,-1,-1,-1],"loss_changes":[5.8790063E3,1.3776127E3,4.4348438E2,1.5637501E3,8.784253E1,5.8375977E1,3.4444556E2,8.8520667E2,6.0336523E2,6.1617035E1,1.329129E1,2.3783203E1,0E0,2.1855719E2,1.16262695E2,1.9810223E2,9.887808E1,4.086797E2,4.5423486E2,7.4454346E1,4.5933136E1,0E0,1.3449524E1,2.1088867E0,8.798182E1,1.3300226E2,9.219848E1,1.27382324E2,6.94718E1,5.5927307E1,1.356514E2,7.935806E1,6.210642E1,2.781162E2,6.530609E1,2.2363501E2,2.3452031E2,6.76828E1,0E0,2.3479218E1,6.7346695E1,7.4068604E0,0E0,6.508789E-1,1.6979721E1,0E0,9.1819763E-1,7.379257E1,3.1652649E1,1.1837337E2,1.5362978E2,1.6562561E1,4.6020447E1,5.9501656E1,9.720337E0,0E0,0E0,0E0,0E0,0E0,0E0,0E0,0E0,0E0,0E0,0E0,0E0,0E0,0E0,0E0,0E0,0E0,0E0,0E0,0E0,0E0,0E0,0E0,0E0,0E0,0E0,0E0,0E0,0E0,0E0,0E0,0E0,0E0,0E0,0E0,0E0,0E0,0E0,0E0,0E0,0E0,0E0,0E0,0E0,0E0,0E0],"parents":[2147483647,0,0,1,1,2,2,3,3,4,4,5,5,6,6,7,7,8,8,9,9,10,10,11,11,13,13,14,14,15,15,16,16,17,17,18,18,19,19,20,20,22,22,23,23,24,24,25,25,26,26,27,27,28,28,29,29,30,30,31,31,32,32,33,33,34,34,35,35,36,36,37,37,39,39,40,40,41,41,43,43,44,44,46,46,47,47,48,48,49,49,50,50,51,51,52,52,53,53,54,54],"right_children":[2,4,6,8,10,12,14,16,18,20,22,24,-1,26,28,30,32,34,36,38,40,-1,42,44,46,48,50,52,54,56,58,60,62,64,66,68,70,72,-1,74,76,78,-1,80,82,-1,84,86,88,90,92,94,96,98,100,-1,-1,-1,-1,-1,-1,-1,-1,-1,-1,-1,-1,-1,-1,-1,-1,-1,-1,-1,-1,-1,-1,-1,-1,-1,-1,-1,-1,-1,-1,-1,-1,-1,-1,-1,-1,-1,-1,-1,-1,-1,-1,-1,-1,-1,-1],"split_conditions":[1E6,3.349E3,2.73E2,1E0,1E0,1.92388E5,3.6E1,5.4674E4,1E3,1.44E2,1E0,1.475096E6,-1.7604979E-2,7.62E2,5.4E2,1.2E1,2.36658E5,1.63E2,1.7E1,7.50849E5,7.517E3,-1.2061384E-2,8.984E5,5.4674E4,2.3E1,3E0,6.849E3,1.733E3,6.37E3,2.8E1,1E0,2.01E2,4.74418E5,2.1E1,6.91E2,1.14E5,1.9638E4,1.16E2,-2.0056669E-2,1.345E3,2.4E2,8.4E1,-1.2061384E-2,1.177E6,8E0,-1.9341214E-2,5.9E1,1.751506E6,3.85815E5,5E1,2E0,6.09804E5,6.55E2,1E0,2.0994E4,1.23478705E-2,-1.8271474E-2,6.858622E-3,1.9439816E-3,-7.7869617E-3,-2.1318419E-2,2.370116E-3,-1.0029772E-2,3.060521E-3,-4.6413657E-3,3.6468762E-3,1.2701619E-2,-1.2547141E-2,-6.718278E-3,-9.015494E-3,2.6955812E-3,5.5947006E-3,-1.9783458E-2,1.29962135E-2,-1.5044061E-2,-1.9584432E-2,7.25481E-3,7.920112E-3,1.4834568E-2,1.7344618E-2,1.4386047E-2,1.5148642E-2,-1.30301565E-2,1.7725071E-2,1.0788534E-2,3.0425834E-3,-2.0486092E-2,1.2740362E-2,-1.630401E-2,1.7554677E-3,-1.6556919E-2,-2.0948049E-2,3.8145292E-3,1.4380575E-2,-1.30301565E-2,7.98827E-3,2.50727E-4,1.2744276E-2,-8.551038E-3,1.1601855E-2,1.5253349E-2],"split_indices":[7,2,2,6,4,0,5,0,7,5,0,7,0,2,5,2,0,4,5,7,2,0,7,0,5,5,0,2,0,3,1,7,0,2,4,7,0,5,0,6,5,5,0,7,5,0,5,7,0,6,5,0,6,0,0,0,0,0,0,0,0,0,0,0,0,0,0,0,0,0,0,0,0,0,0,0,0,0,0,0,0,0,0,0,0,0,0,0,0,0,0,0,0,0,0,0,0,0,0,0,0],"split_type":[0,0,0,0,0,0,0,0,0,0,0,0,0,0,0,0,0,0,0,0,0,0,0,0,0,0,0,0,0,0,0,0,0,0,0,0,0,0,0,0,0,0,0,0,0,0,0,0,0,0,0,0,0,0,0,0,0,0,0,0,0,0,0,0,0,0,0,0,0,0,0,0,0,0,0,0,0,0,0,0,0,0,0,0,0,0,0,0,0,0,0,0,0,0,0,0,0,0,0,0,0],"sum_hessian":[2.0682146E4,1.646014E4,4.222007E3,1.548864E4,9.7150116E2,9.5461414E2,3.2673928E3,3.4452034E3,1.2043436E4,7.201824E2,2.5131882E2,9.503924E2,4.221759E0,1.118766E3,2.1486267E3,2.6584663E3,7.867371E2,8.47456E3,3.568876E3,3.1588687E2,4.0429547E2,1.2416937E0,2.5007712E2,9.101615E2,4.0230877E1,4.3111606E2,6.8764996E2,1.3184304E3,8.301964E2,3.864151E2,2.2720513E3,5.79126E2,2.0761119E2,8.0623174E3,4.122423E2,2.8323035E3,7.365727E2,3.0421497E2,1.1671921E1,2.2474657E2,1.7954892E2,2.4883542E2,1.2416937E0,8.503119E2,5.9849636E1,7.94684E0,3.228404E1,7.822671E1,3.5288934E2,1.4155309E2,5.460969E2,3.697764E2,9.48654E2,5.0661102E1,7.7953534E2,3.8119998E2,5.2151136E0,1.01744385E3,1.2546073E3,5.324383E2,4.6687683E1,1.5397002E2,5.364117E1,4.991609E2,7.5631562E3,3.0471164E2,1.0753068E2,1.7818304E3,1.0504729E3,2.6795752E2,4.686152E2,2.942814E2,9.93355E0,2.2251152E2,2.2350488E0,8.940195E0,1.7060872E2,2.0612116E1,2.2822331E2,8.0784595E2,4.2465927E1,5.8359604E1,1.4900324E0,2.3095503E1,9.188534E0,6.2333023E1,1.589368E1,3.499093E2,2.9800649E0,7.897172E1,6.2581364E1,2.5330551E1,5.2076636E2,3.6828635E2,1.4900324E0,8.642188E2,8.443517E1,2.6572247E1,2.4088858E1,1.01818886E2,6.7771643E2],"tree_param":{"num_deleted":"0","num_feature":"8","num_nodes":"101","size_leaf_vector":"1"}},{"base_weights":[3.602355E-4,-2.6691833E-1,1.0433552E0,-3.3862567E-1,8.766533E-1,1.6385124E0,8.6914015E-1,2.494156E-1,-5.067453E-1,6.9881177E-1,1.3817817E0,1.6554016E0,-1.744338E-2,4.2261675E-1,1.1014665E0,5.225738E-1,-6.7221016E-1,-3.6297035E-1,-8.4782255E-1,3.6914816E-1,9.5496607E-1,-1.198825E-2,1.399352E0,1.6889275E0,8.748421E-1,9.750332E-1,7.5636E-2,9.16955E-1,1.3931532E0,1.1781436E0,4.106839E-1,-8.817869E-1,-8.580428E-2,-4.1211745E-1,5.9768414E-1,-1.0276142E0,-1.5554081E-1,4.6582887E-1,-1.9843709E-2,1.2538874E0,5.7613814E-1,1.4170971E0,-1.198825E-2,1.7067426E0,1.4119617E0,-1.9144041E-2,1.6002516E0,-1.9186619E-1,1.2338206E0,-6.333819E-1,2.603723E-1,1.4110129E0,7.232084E-1,2.6240394E-1,1.4662831E0,1.223752E-2,-1.8096674E-2,4.341364E-3,-2.0817043E-2,-7.7044466E-3,-2.1075977E-2,2.3470244E-3,-9.923546E-3,3.0307423E-3,-4.5932373E-3,3.6116126E-3,1.2589247E-2,-1.2409471E-2,-6.647579E-3,-8.919288E-3,2.6692753E-3,5.5415165E-3,-1.9576604E-2,1.288102E-2,-1.4927986E-2,-1.9381966E-2,7.187026E-3,7.84955E-3,1.4705455E-2,1.7197063E-2,1.4262626E-2,1.5018867E-2,-1.294424E-2,1.758095E-2,1.0700042E-2,3.0133848E-3,-2.0263333E-2,1.26269655E-2,-1.616656E-2,1.7383803E-3,-1.6373182E-2,-2.0714479E-2,3.7776483E-3,1.425463E-2,-1.294424E-2,7.913777E-3,2.482537E-4,1.26346545E-2,-8.463388E-3,1.3714699E-2,1.6264513E-2],"categories":[],"categories_nodes":[],"categories_segments":[],"categories_sizes":[],"default_left":[0,0,0,0,0,0,0,0,0,0,0,0,0,0,0,0,0,0,0,0,0,0,0,0,0,0,0,0,0,0,0,0,0,0,0,0,0,0,0,0,0,0,0,0,0,0,0,0,0,0,0,0,0,0,0,0,0,0,0,0,0,0,0,0,0,0,0,0,0,0,0,0,0,0,0,0,0,0,0,0,0,0,0,0,0,0,0,0,0,0,0,0,0,0,0,0,0,0,0,0,0],"id":1,"left_children":[1,3,5,7,9,11,13,15,17,19,21,23,-1,25,27,29,31,33,35,37,39,-1,41,43,45,47,49,51,53,55,57,59,61,63,65,67,69,71,-1,73,75,77,-1,79,81,-1,83,85,87,89,91,93,95,97,99,-1,-1,-1,-1,-1,-1,-1,-1,-1,-1,-1,-1,-1,-1,-1,-1,-1,-1,-1,-1,-1,-1,-1,-1,-1,-1,-1,-1,-1,-1,-1,-1,-1,-1,-1,-1,-1,-1,-1,-1,-1,-1,-1,-1,-1,-1],"loss_changes":[5.7660166E3,1.35043E3,4.3604688E2,1.5318615E3,8.633087E1,5.740796E1,3.383418E2,8.677423E2,5.9057153E2,6.0510773E1,1.3104584E1,2.338379E1,0E0,2.1448041E2,1.1430591E2,1.9450659E2,9.678638E1,4.0052344E2,4.4446948E2,7.3005226E1,4.513556E1,0E0,1.3260956E1,2.0793457E0,8.642372E1,1.3061664E2,9.03581E1,1.2517981E2,6.826587E1,5.495404E1,1.3372406E2,7.760983E1,6.0849686E1,2.724602E2,6.414343E1,2.1867798E2,2.2972473E2,6.638991E1,0E0,2.311499E1,6.607948E1,7.2766724E0,0E0,6.381836E-1,1.6735199E1,0E0,9.009323E-1,7.2300804E1,3.1139404E1,1.1586511E2,1.5051013E2,1.6322693E1,4.5164276E1,5.8395355E1,9.607788E0,0E0,0E0,0E0,0E0,0E0,0E0,0E0,0E0,0E0,0E0,0E0,0E0,0E0,0E0,0E0,0E0,0E0,0E0,0E0,0E0,0E0,0E0,0E0,0E0,0E0,0E0,0E0,0E0,0E0,0E0,0E0,0E0,0E0,0E0,0E0,0E0,0E0,0E0,0E0,0E0,0E0,0E0,0E0,0E0,0E0,0E0],"parents":[2147483647,0,0,1,1,2,2,3,3,4,4,5,5,6,6,7,7,8,8,9,9,10,10,11,11,13,13,14,14,15,15,16,16,17,17,18,18,19,19,20,20,22,22,23,23,24,24,25,25,26,26,27,27,28,28,29,29,30,30,31,31,32,32,33,33,34,34,35,35,36,36,37,37,39,39,40,40,41,41,43,43,44,44,46,46,47,47,48,48,49,49,50,50,51,51,52,52,53,53,54,54],"right_children":[2,4,6,8,10,12,14,16,18,20,22,24,-1,26,28,30,32,34,36,38,40,-1,42,44,46,48,50,52,54,56,58,60,62,64,66,68,70,72,-1,74,76,78,-1,80,82,-1,84,86,88,90,92,94,96,98,100,-1,-1,-1,-1,-1,-1,-1,-1,-1,-1,-1,-1,-1,-1,-1,-1,-1,-1,-1,-1,-1,-1,-1,-1,-1,-1,-1,-1,-1,-1,-1,-1,-1,-1,-1,-1,-1,-1,-1,-1,-1,-1,-1,-1,-1,-1],"split_conditions":[1E6,3.349E3,2.73E2,1E0,1E0,1.92388E5,3.6E1,5.4674E4,1E3,1.44E2,1E0,1.475096E6,-1.744338E-2,7.62E2,5.4E2,1.2E1,2.36658E5,1.63E2,1.7E1,7.50849E5,7.517E3,-1.198825E-2,8.984E5,5.4674E4,2.3E1,3E0,6.849E3,1.733E3,6.37E3,2.8E1,2.8E1,2.01E2,4.74418E5,2.1E1,6.91E2,1.14E5,1.9638E4,1.16E2,-1.9843709E-2,1.345E3,2.4E2,8.4E1,-1.198825E-2,1.177E6,8E0,-1.9144041E-2,5.9E1,1.751506E6,3.85815E5,5E1,2E0,6.09804E5,6.55E2,1E0,7E0,1.223752E-2,-1.8096674E-2,4.341364E-3,-2.0817043E-2,-7.7044466E-3,-2.1075977E-2,2.3470244E-3,-9.923546E-3,3.0307423E-3,-4.5932373E-3,3.6116126E-3,1.2589247E-2,-1.2409471E-2,-6.647579E-3,-8.919288E-3,2.6692753E-3,5.5415165E-3,-1.9576604E-2,1.288102E-2,-1.4927986E-2,-1.9381966E-2,7.187026E-3,7.84955E-3,1.4705455E-2,1.7197063E-2,1.4262626E-2,1.5018867E-2,-1.294424E-2,1.758095E-2,1.0700042E-2,3.0133848E-3,-2.0263333E-2,1.26269655E-2,-1.616656E-2,1.7383803E-3,-1.6373182E-2,-2.0714479E-2,3.7776483E-3,1.425463E-2,-1.294424E-2,7.913777E-3,2.482537E-4,1.26346545E-2,-8.463388E-3,1.3714699E-2,1.6264513E-2],"split_indices":[7,2,2,6,4,0,5,0,7,5,0,7,0,2,5,2,0,4,5,7,2,0,7,0,5,5,0,2,0,3,3,7,0,2,4,7,0,5,0,6,5,5,0,7,5,0,5,7,0,6,5,0,6,0,4,0,0,0,0,0,0,0,0,0,0,0,0,0,0,0,0,0,0,0,0,0,0,0,0,0,0,0,0,0,0,0,0,0,0,0,0,0,0,0,0,0,0,0,0,0,0],"split_type":[0,0,0,0,0,0,0,0,0,0,0,0,0,0,0,0,0,0,0,0,0,0,0,0,0,0,0,0,0,0,0,0,0,0,0,0,0,0,0,0,0,0,0,0,0,0,0,0,0,0,0,0,0,0,0,0,0,0,0,0,0,0,0,0,0,0,0,0,0,0,0,0,0,0,0,0,0,0,0,0,0,0,0,0,0,0,0,0,0,0,0,0,0,0,0,0,0,0,0,0,0],"sum_hessian":[2.0681762E4,1.6463547E4,4.218215E3,1.549278E4,9.707662E2,9.5326074E2,3.264954E3,3.4444507E3,1.2048329E4,7.197469E2,2.5101927E2,9.4903326E2,4.227496E0,1.1183474E3,2.1466067E3,2.6572952E3,7.871557E2,8.477048E3,3.571281E3,3.157834E2,4.039635E2,1.2428702E0,2.497764E2,9.088341E2,4.019919E1,4.3075183E2,6.875956E2,1.3174036E3,8.292032E2,3.860245E2,2.2712705E3,5.795319E2,2.0762376E2,8.065013E3,4.1203516E2,2.8346206E3,7.3666046E2,3.0409354E2,1.1689851E1,2.2450424E2,1.7945924E2,2.4853352E2,1.2428702E0,8.490583E2,5.9775814E1,7.958639E0,3.2240547E1,7.823601E1,3.525158E2,1.4162198E2,5.4597363E2,3.6932755E2,9.48076E2,5.0648804E1,7.785544E2,3.8080206E2,5.222454E0,2.250916E3,2.0354506E1,5.327683E2,4.6763607E1,1.5394006E2,5.36837E1,4.990352E2,7.565978E3,3.0462006E2,1.0741509E2,1.7835841E3,1.0510365E3,2.6814908E2,4.6851138E2,2.9414493E2,9.948615E0,2.2226659E2,2.2376654E0,8.953626E0,1.7050562E2,2.0598492E1,2.2793503E2,8.066443E2,4.2413975E1,5.828426E1,1.4915531E0,2.3060356E1,9.180191E0,6.2317425E1,1.5918583E1,3.4953198E2,2.9838312E0,7.896036E1,6.2661617E1,2.5371077E1,5.2060254E2,3.67836E2,1.4915531E0,8.636425E2,8.443345E1,2.6543585E1,2.4105217E1,4.9506097E2,2.8349344E2],"tree_param":{"num_deleted":"0","num_feature":"8","num_nodes":"101","size_leaf_vector":"1"}},{"base_weights":[3.5474906E-4,-2.6420674E-1,1.0339348E0,-3.3516085E-1,8.6854386E-1,1.6246792E0,8.6114067E-1,2.4696559E-1,-5.014864E-1,6.922068E-1,1.3697169E0,1.641464E0,-1.7285533E-2,4.1852093E-1,1.0915712E0,5.1757705E-1,-6.652065E-1,-3.5923758E-1,-8.388292E-1,3.6548012E-1,9.46212E-1,-1.1916043E-2,1.3871963E0,1.6747459E0,8.671037E-1,9.6611893E-1,7.484358E-2,9.0854186E-1,1.3810507E0,1.1676086E0,4.0671295E-1,-8.724507E-1,-8.497764E-2,-4.0786487E-1,5.920579E-1,-1.0165757E0,-1.539769E-1,4.6131772E-1,-1.9636856E-2,1.2427714E0,5.7061154E-1,1.4048501E0,-1.1916043E-2,1.6924413E0,1.3997228E0,-1.8952204E-2,1.5873622E0,-1.9014844E-1,1.2228559E0,-6.268841E-1,2.5780088E-1,1.3987348E0,7.164397E-1,2.5994182E-1,1.4536337E0,1.2128949E-2,-1.792619E-2,6.756578E-3,1.8833072E-3,-7.623084E-3,-2.0841219E-2,2.324159E-3,-9.819001E-3,3.0012615E-3,-4.545673E-3,3.576706E-3,1.2478734E-2,-1.2274393E-2,-6.5778047E-3,-8.824527E-3,2.643232E-3,5.4888986E-3,-1.9375557E-2,1.2767776E-2,-1.4814006E-2,-1.9185092E-2,7.120014E-3,7.7798017E-3,1.4578877E-2,1.7053066E-2,1.4141531E-2,1.4891693E-2,-1.2859553E-2,1.744038E-2,1.0612762E-2,2.9844728E-3,-2.0047188E-2,1.25154555E-2,-1.6031926E-2,1.7214601E-3,-1.6193856E-2,-2.0488104E-2,3.7411419E-3,1.4131069E-2,-1.2859553E-2,7.840175E-3,2.4580545E-4,1.2526833E-2,-8.376983E-3,1.1368636E-2,1.49949165E-2],"categories":[],"categories_nodes":[],"categories_segments":[],"categories_sizes":[],"default_left":[0,0,0,0,0,0,0,0,0,0,0,0,0,0,0,0,0,0,0,0,0,0,0,0,0,0,0,0,0,0,0,0,0,0,0,0,0,0,0,0,0,0,0,0,0,0,0,0,0,0,0,0,0,0,0,0,0,0,0,0,0,0,0,0,0,0,0,0,0,0,0,0,0,0,0,0,0,0,0,0,0,0,0,0,0,0,0,0,0,0,0,0,0,0,0,0,0,0,0,0,0],"id":2,"left_children":[1,3,5,7,9,11,13,15,17,19,21,23,-1,25,27,29,31,33,35,37,39,-1,41,43,45,47,49,51,53,55,57,59,61,63,65,67,69,71,-1,73,75,77,-1,79,81,-1,83,85,87,89,91,93,95,97,99,-1,-1,-1,-1,-1,-1,-1,-1,-1,-1,-1,-1,-1,-1,-1,-1,-1,-1,-1,-1,-1,-1,-1,-1,-1,-1,-1,-1,-1,-1,-1,-1,-1,-1,-1,-1,-1,-1,-1,-1,-1,-1,-1,-1,-1,-1],"loss_changes":[5.6555757E3,1.3238396E3,4.2886865E2,1.5006342E3,8.486255E1,5.646338E1,3.323816E2,8.5063055E2,5.78125E2,5.9430603E1,1.292157E1,2.299414E1,0E0,2.1049828E2,1.1241846E2,1.9100842E2,9.474716E1,3.9253662E2,4.349663E2,7.1593994E1,4.4359497E1,0E0,1.3076111E1,2.052002E0,8.4904366E1,1.2828448E2,8.855861E1,1.23046265E2,6.709143E1,5.4002197E1,1.332829E2,7.593701E1,5.9621353E1,2.6692358E2,6.3010178E1,2.1388843E2,2.2503699E2,6.512931E1,0E0,2.2757935E1,6.4842804E1,7.151428E0,0E0,6.269531E-1,1.649569E1,0E0,8.850708E-1,7.085328E1,3.0636719E1,1.1343083E2,1.4747862E2,1.6087646E1,4.4326202E1,5.731316E1,9.604248E0,0E0,0E0,0E0,0E0,0E0,0E0,0E0,0E0,0E0,0E0,0E0,0E0,0E0,0E0,0E0,0E0,0E0,0E0,0E0,0E0,0E0,0E0,0E0,0E0,0E0,0E0,0E0,0E0,0E0,0E0,0E0,0E0,0E0,0E0,0E0,0E0,0E0,0E0,0E0,0E0,0E0,0E0,0E0,0E0,0E0,0E0],"parents":[2147483647,0,0,1,1,2,2,3,3,4,4,5,5,6,6,7,7,8,8,9,9,10,10,11,11,13,13,14,14,15,15,16,16,17,17,18,18,19,19,20,20,22,22,23,23,24,24,25,25,26,26,27,27,28,28,29,29,30,30,31,31,32,32,33,33,34,34,35,35,36,36,37,37,39,39,40,40,41,41,43,43,44,44,46,46,47,47,48,48,49,49,50,50,51,51,52,52,53,53,54,54],"right_children":[2,4,6,8,10,12,14,16,18,20,22,24,-1,26,28,30,32,34,36,38,40,-1,42,44,46,48,50,52,54,56,58,60,62,64,66,68,70,72,-1,74,76,78,-1,80,82,-1,84,86,88,90,92,94,96,98,100,-1,-1,-1,-1,-1,-1,-1,-1,-1,-1,-1,-1,-1,-1,-1,-1,-1,-1,-1,-1,-1,-1,-1,-1,-1,-1,-1,-1,-1,-1,-1,-1,-1,-1,-1,-1,-1,-1,-1,-1,-1,-1,-1,-1,-1,-1],"split_conditions":[1E6,3.349E3,2.73E2,1E0,1E0,1.92388E5,3.6E1,5.4674E4,1E3,1.44E2,1E0,1.475096E6,-1.7285533E-2,7.62E2,5.4E2,1.2E1,2.36658E5,1.63E2,1.7E1,7.50849E5,7.517E3,-1.1916043E-2,8.984E5,5.4674E4,2.3E1,3E0,6.849E3,1.733E3,6.37E3,2.8E1,1E0,2.01E2,4.74418E5,2.1E1,6.91E2,1.14E5,1.9638E4,1.16E2,-1.9636856E-2,1.345E3,2.4E2,8.4E1,-1.1916043E-2,1.177E6,8E0,-1.8952204E-2,5.9E1,1.751506E6,3.85815E5,5E1,2E0,6.09804E5,6.55E2,1E0,2.0994E4,1.2128949E-2,-1.792619E-2,6.756578E-3,1.8833072E-3,-7.623084E-3,-2.0841219E-2,2.324159E-3,-9.819001E-3,3.0012615E-3,-4.545673E-3,3.576706E-3,1.2478734E-2,-1.2274393E-2,-6.5778047E-3,-8.824527E-3,2.643232E-3,5.4888986E-3,-1.9375557E-2,1.2767776E-2,-1.4814006E-2,-1.9185092E-2,7.120014E-3,7.7798017E-3,1.4578877E-2,1.7053066E-2,1.4141531E-2,1.4891693E-2,-1.2859553E-2,1.744038E-2,1.0612762E-2,2.9844728E-3,-2.0047188E-2,1.25154555E-2,-1.6031926E-2,1.7214601E-3,-1.6193856E-2,-2.0488104E-2,3.7411419E-3,1.4131069E-2,-1.2859553E-2,7.840175E-3,2.4580545E-4,1.2526833E-2,-8.376983E-3,1.1368636E-2,1.49949165E-2],"split_indices":[7,2,2,6,4,0,5,0,7,5,0,7,0,2,5,2,0,4,5,7,2,0,7,0,5,5,0,2,0,3,1,7,0,2,4,7,0,5,0,6,5,5,0,7,5,0,5,7,0,6,5,0,6,0,0,0,0,0,0,0,0,0,0,0,0,0,0,0,0,0,0,0,0,0,0,0,0,0,0,0,0,0,0,0,0,0,0,0,0,0,0,0,0,0,0,0,0,0,0,0,0],"split_type":[0,0,0,0,0,0,0,0,0,0,0,0,0,0,0,0,0,0,0,0,0,0,0,0,0,0,0,0,0,0,0,0,0,0,0,0,0,0,0,0,0,0,0,0,0,0,0,0,0,0,0,0,0,0,0,0,0,0,0,0,0,0,0,0,0,0,0,0,0,0,0,0,0,0,0,0,0,0,0,0,0,0,0,0,0,0,0,0,0,0,0,0,0,0,0,0,0,0,0,0,0],"sum_hessian":[2.068064E4,1.6466516E4,4.2141255E3,1.5496535E4,9.699798E2,9.5178516E2,3.2623403E3,3.4436265E3,1.2052909E4,7.192824E2,2.5069737E2,9.475526E2,4.232545E0,1.1178837E3,2.1444568E3,2.6560857E3,7.875408E2,8.47942E3,3.5734893E3,3.1567227E2,4.0361017E2,1.2439516E0,2.4945341E2,9.073903E2,4.0162285E1,4.3035956E2,6.875241E2,1.3163226E3,8.281341E2,3.8560858E2,2.270477E3,5.7990765E2,2.0763315E2,8.0676E3,4.118196E2,2.8367542E3,7.3673505E2,3.0396695E2,1.1705313E1,2.2424576E2,1.7936441E2,2.4820947E2,1.2439516E0,8.476943E2,5.969606E1,7.968875E0,3.219341E1,7.824168E1,3.521179E2,1.4168166E2,5.4584247E2,3.6884586E2,9.474768E2,5.0633648E1,7.775005E2,3.803797E2,5.228878E0,1.0165135E3,1.2539636E3,5.330793E2,4.682838E1,1.5390997E2,5.3723175E1,4.9890848E2,7.568692E3,3.045274E2,1.0729218E2,1.7851829E3,1.0515713E3,2.683281E2,4.6840695E2,2.940053E2,9.961636E0,2.2200574E2,2.240016E0,8.965253E0,1.7039915E2,2.0584364E1,2.276251E2,8.05336E2,4.2358242E1,5.820312E1,1.4929404E0,2.3022007E1,9.171401E0,6.2301693E1,1.5939981E1,3.491307E2,2.9871805E0,7.894899E1,6.2732666E1,2.540576E1,5.204367E2,3.6735294E2,1.4929404E0,8.6304504E2,8.443173E1,2.651309E1,2.4120556E1,1.0158431E2,6.7591614E2],"tree_param":{"num_deleted":"0","num_feature":"8","num_nodes":"101","size_leaf_vector":"1"}},{"base_weights":[3.504624E-4,-2.6152804E-1,1.0246705E0,-3.3173808E-1,8.605543E-1,1.6111681E0,8.5325927E-1,2.4455188E-1,-4.962948E-1,6.856914E-1,1.3578769E0,1.627851E0,-1.713131E-2,4.144809E-1,1.081829E0,5.126452E-1,-6.583032E-1,-3.555479E-1,-8.299764E-1,3.6185676E-1,9.375872E-1,-1.1844748E-2,1.3752675E0,1.6608949E0,8.595421E-1,9.573476E-1,7.4060686E-2,9.0024257E-1,1.3691757E0,1.1572431E0,4.0279388E-1,-8.632577E-1,-8.416012E-2,-4.0366143E-1,5.8649635E-1,-1.0057199E0,-1.524316E-1,4.5685762E-1,-1.9435864E-2,1.2318417E0,5.651541E-1,1.3928322E0,-1.1844748E-2,1.678477E0,1.3877243E0,-1.876549E-2,1.5747503E0,-1.8845461E-1,1.212072E0,-6.204924E-1,2.552579E-1,1.386686E0,7.097502E-1,2.575171E-1,1.4412256E0,1.2022108E-2,-1.775986E-2,4.2605684E-3,-2.064554E-2,-7.5428463E-3,-2.0613799E-2,2.3015193E-3,-9.716093E-3,2.9720708E-3,-4.4986624E-3,3.542147E-3,1.2370024E-2,-1.2141824E-2,-6.508937E-3,-8.731176E-3,2.6174441E-3,5.436836E-3,-1.918008E-2,1.2656427E-2,-1.47020575E-2,-1.8993583E-2,7.0537673E-3,7.710854E-3,1.445475E-2,1.6912498E-2,1.4022685E-2,1.4767036E-2,-1.2776069E-2,1.7303247E-2,1.0526661E-2,2.9558432E-3,-1.983738E-2,1.2405775E-2,-1.5900027E-2,1.704704E-3,-1.6018765E-2,-2.0268604E-2,3.7049975E-3,1.4009818E-2,-1.2776069E-2,7.767448E-3,2.4338122E-4,1.2420757E-2,-8.291789E-3,1.3469739E-2,1.6005315E-2],"categories":[],"categories_nodes":[],"categories_segments":[],"categories_sizes":[],"default_left":[0,0,0,0,0,0,0,0,0,0,0,0,0,0,0,0,0,0,0,0,0,0,0,0,0,0,0,0,0,0,0,0,0,0,0,0,0,0,0,0,0,0,0,0,0,0,0,0,0,0,0,0,0,0,0,0,0,0,0,0,0,0,0,0,0,0,0,0,0,0,0,0,0,0,0,0,0,0,0,0,0,0,0,0,0,0,0,0,0,0,0,0,0,0,0,0,0,0,0,0,0],"id":3,"left_children":[1,3,5,7,9,11,13,15,17,19,21,23,-1,25,27,29,31,33,35,37,39,-1,41,43,45,47,49,51,53,55,57,59,61,63,65,67,69,71,-1,73,75,77,-1,79,81,-1,83,85,87,89,91,93,95,97,99,-1,-1,-1,-1,-1,-1,-1,-1,-1,-1,-1,-1,-1,-1,-1,-1,-1,-1,-1,-1,-1,-1,-1,-1,-1,-1,-1,-1,-1,-1,-1,-1,-1,-1,-1,-1,-1,-1,-1,-1,-1,-1,-1,-1,-1,-1],"loss_changes":[5.5475713E3,1.2978202E3,4.2194092E2,1.4701099E3,8.343573E1,5.554077E1,3.2655762E2,8.338902E2,5.660132E2,5.8375854E1,1.2742096E1,2.2613525E1,0E0,2.0660812E2,1.1059497E2,1.8759338E2,9.275897E1,3.8471472E2,4.2571558E2,7.021926E1,4.3604126E1,0E0,1.2894867E1,2.0263672E0,8.3422424E1,1.2600427E2,8.67988E1,1.2097888E2,6.594678E1,5.307086E1,1.31211E2,7.433542E1,5.8420662E1,2.6150366E2,6.190532E1,2.0925732E2,2.2045413E2,6.3899857E1,0E0,2.2407806E1,6.363569E1,7.0309143E0,0E0,6.171875E-1,1.626101E1,0E0,8.705063E-1,6.944821E1,3.0143982E1,1.1106743E2,1.445316E2,1.5857178E1,4.3505676E1,5.6254387E1,9.516357E0,0E0,0E0,0E0,0E0,0E0,0E0,0E0,0E0,0E0,0E0,0E0,0E0,0E0,0E0,0E0,0E0,0E0,0E0,0E0,0E0,0E0,0E0,0E0,0E0,0E0,0E0,0E0,0E0,0E0,0E0,0E0,0E0,0E0,0E0,0E0,0E0,0E0,0E0,0E0,0E0,0E0,0E0,0E0,0E0,0E0,0E0],"parents":[2147483647,0,0,1,1,2,2,3,3,4,4,5,5,6,6,7,7,8,8,9,9,10,10,11,11,13,13,14,14,15,15,16,16,17,17,18,18,19,19,20,20,22,22,23,23,24,24,25,25,26,26,27,27,28,28,29,29,30,30,31,31,32,32,33,33,34,34,35,35,36,36,37,37,39,39,40,40,41,41,43,43,44,44,46,46,47,47,48,48,49,49,50,50,51,51,52,52,53,53,54,54],"right_children":[2,4,6,8,10,12,14,16,18,20,22,24,-1,26,28,30,32,34,36,38,40,-1,42,44,46,48,50,52,54,56,58,60,62,64,66,68,70,72,-1,74,76,78,-1,80,82,-1,84,86,88,90,92,94,96,98,100,-1,-1,-1,-1,-1,-1,-1,-1,-1,-1,-1,-1,-1,-1,-1,-1,-1,-1,-1,-1,-1,-1,-1,-1,-1,-1,-1,-1,-1,-1,-1,-1,-1,-1,-1,-1,-1,-1,-1,-1,-1,-1,-1,-1,-1,-1],"split_conditions":[1E6,3.349E3,2.73E2,1E0,1E0,1.92388E5,3.6E1,5.4674E4,1E3,1.44E2,1E0,1.475096E6,-1.713131E-2,7.62E2,5.4E2,1.2E1,2.36658E5,1.63E2,1.7E1,7.50849E5,7.517E3,-1.1844748E-2,8.984E5,5.4674E4,2.3E1,3E0,6.849E3,1.733E3,6.37E3,2.8E1,2.8E1,2.01E2,4.74418E5,2.1E1,6.91E2,1.14E5,1.9638E4,1.16E2,-1.9435864E-2,1.345E3,2.4E2,8.4E1,-1.1844748E-2,1.177E6,8E0,-1.876549E-2,5.9E1,1.751506E6,3.85815E5,5E1,2E0,6.09804E5,6.55E2,1E0,7E0,1.2022108E-2,-1.775986E-2,4.2605684E-3,-2.064554E-2,-7.5428463E-3,-2.0613799E-2,2.3015193E-3,-9.716093E-3,2.9720708E-3,-4.4986624E-3,3.542147E-3,1.2370024E-2,-1.2141824E-2,-6.508937E-3,-8.731176E-3,2.6174441E-3,5.436836E-3,-1.918008E-2,1.2656427E-2,-1.47020575E-2,-1.8993583E-2,7.0537673E-3,7.710854E-3,1.445475E-2,1.6912498E-2,1.4022685E-2,1.4767036E-2,-1.2776069E-2,1.7303247E-2,1.0526661E-2,2.9558432E-3,-1.983738E-2,1.2405775E-2,-1.5900027E-2,1.704704E-3,-1.6018765E-2,-2.0268604E-2,3.7049975E-3,1.4009818E-2,-1.2776069E-2,7.767448E-3,2.4338122E-4,1.2420757E-2,-8.291789E-3,1.3469739E-2,1.6005315E-2],"split_indices":[7,2,2,6,4,0,5,0,7,5,0,7,0,2,5,2,0,4,5,7,2,0,7,0,5,5,0,2,0,3,3,7,0,2,4,7,0,5,0,6,5,5,0,7,5,0,5,7,0,6,5,0,6,0,4,0,0,0,0,0,0,0,0,0,0,0,0,0,0,0,0,0,0,0,0,0,0,0,0,0,0,0,0,0,0,0,0,0,0,0,0,0,0,0,0,0,0,0,0,0,0],"split_type":[0,0,0,0,0,0,0,0,0,0,0,0,0,0,0,0,0,0,0,0,0,0,0,0,0,0,0,0,0,0,0,0,0,0,0,0,0,0,0,0,0,0,0,0,0,0,0,0,0,0,0,0,0,0,0,0,0,0,0,0,0,0,0,0,0,0,0,0,0,0,0,0,0,0,0,0,0,0,0,0,0,0,0,0,0,0,0,0,0,0,0,0,0,0,0,0,0,0,0,0,0],"sum_hessian":[2.0678803E4,1.6469055E4,4.2097476E3,1.5499912E4,9.6914374E2,9.5019116E2,3.2595564E3,3.4427297E3,1.2057182E4,7.187899E2,2.5035385E2,9.459542E2,4.2369213E0,1.1173762E3,2.1421802E3,2.6548362E3,7.878934E2,8.481677E3,3.5755056E3,3.1555374E2,4.0323618E2,1.2449391E0,2.4910892E2,9.058339E2,4.012032E1,4.299402E2,6.87436E2,1.3151896E3,8.269905E2,3.8516815E2,2.269668E3,5.8025397E2,2.0763945E2,8.0700806E3,4.1159595E2,2.838709E3,7.367968E2,3.0383536E2,1.171837E1,2.239716E2,1.7926457E2,2.4786398E2,1.2449391E0,8.462234E2,5.961056E1,7.977587E0,3.214273E1,7.8243805E1,3.5169635E2,1.4173239E2,5.457036E2,3.6833243E2,9.468572E2,5.0615726E1,7.7637476E2,3.7993375E2,5.234408E0,2.2492883E3,2.0379698E1,5.3337164E2,4.6882317E1,1.5387978E2,5.3759666E1,4.987808E2,7.5713E3,3.0443375E2,1.07162186E2,1.7866309E3,1.0520781E3,2.6849487E2,4.6830194E2,2.938627E2,9.972665E0,2.2172949E2,2.242105E0,8.975123E0,1.7028944E2,2.0569754E1,2.2729422E2,8.039245E2,4.229884E1,5.8116367E1,1.4941967E0,2.2980553E1,9.162177E0,6.2285843E1,1.5957967E1,3.4870624E2,2.9901214E0,7.8937614E1,6.279478E1,2.5434763E1,5.2026886E2,3.6683823E2,1.4941967E0,8.624272E2,8.443004E1,2.6480825E1,2.4134901E1,4.937232E2,2.8265155E2],"tree_param":{"num_deleted":"0","num_feature":"8","num_nodes":"101","size_leaf_vector":"1"}},{"base_weights":[3.451734E-4,-2.588846E-1,1.0155586E0,-3.2835975E-1,8.526814E-1,1.5979676E0,8.4549433E-1,2.4215937E-1,-4.9116936E-1,6.7926353E-1,1.3462543E0,1.6145511E0,-1.6980592E-2,4.104956E-1,1.0722375E0,5.0775796E-1,-6.514981E-1,-3.5190085E-1,-8.2126063E-1,3.582776E-1,9.2908806E-1,-1.1774343E-2,1.3635583E0,1.6473625E0,8.521507E-1,9.4871455E-1,7.3287904E-2,8.920539E-1,1.3575267E0,1.1470418E0,3.9890388E-1,-8.542041E-1,-8.33519E-2,-3.9950654E-1,5.809984E-1,-9.9504215E-1,-1.5090445E-1,4.5244816E-1,-1.9240491E-2,1.2210927E0,5.59764E-1,1.3810357E0,-1.1774343E-2,1.6648376E0,1.3759586E0,-1.85837E-2,1.5624061E0,-1.8678412E-1,1.2014627E0,-6.142035E-1,2.5274375E-1,1.3748584E0,7.031378E-1,2.5512898E-1,1.4290574E0,1.1916941E-2,-1.7597537E-2,6.6565443E-3,1.8240183E-3,-7.4637085E-3,-2.039338E-2,2.2791E-3,-9.61478E-3,2.9431703E-3,-4.4522006E-3,3.5079345E-3,1.22630615E-2,-1.2011686E-2,-6.4409655E-3,-8.6392E-3,2.5919112E-3,5.3853244E-3,-1.8989941E-2,1.2546915E-2,-1.4592094E-2,-1.8807227E-2,6.9882683E-3,7.642691E-3,1.4332994E-2,1.6775234E-2,1.3906011E-2,1.4644818E-2,-1.2693767E-2,1.7169422E-2,1.0441712E-2,2.9274928E-3,-1.9633638E-2,1.2297864E-2,-1.5770782E-2,1.688114E-3,-1.584775E-2,-2.0055678E-2,3.6692205E-3,1.3890795E-2,-1.2693767E-2,7.695574E-3,2.4098101E-4,1.2316377E-2,-8.207779E-3,1.1142905E-2,1.4746642E-2],"categories":[],"categories_nodes":[],"categories_segments":[],"categories_sizes":[],"default_left":[0,0,0,0,0,0,0,0,0,0,0,0,0,0,0,0,0,0,0,0,0,0,0,0,0,0,0,0,0,0,0,0,0,0,0,0,0,0,0,0,0,0,0,0,0,0,0,0,0,0,0,0,0,0,0,0,0,0,0,0,0,0,0,0,0,0,0,0,0,0,0,0,0,0,0,0,0,0,0,0,0,0,0,0,0,0,0,0,0,0,0,0,0,0,0,0,0,0,0,0,0],"id":4,"left_children":[1,3,5,7,9,11,13,15,17,19,21,23,-1,25,27,29,31,33,35,37,39,-1,41,43,45,47,49,51,53,55,57,59,61,63,65,67,69,71,-1,73,75,77,-1,79,81,-1,83,85,87,89,91,93,95,97,99,-1,-1,-1,-1,-1,-1,-1,-1,-1,-1,-1,-1,-1,-1,-1,-1,-1,-1,-1,-1,-1,-1,-1,-1,-1,-1,-1,-1,-1,-1,-1,-1,-1,-1,-1,-1,-1,-1,-1,-1,-1,-1,-1,-1,-1,-1],"loss_changes":[5.441975E3,1.272364E3,4.1525E2,1.4402162E3,8.2048706E1,5.4639404E1,3.2086743E2,8.1748553E2,5.542246E2,5.734546E1,1.2566162E1,2.22417E1,0E0,2.0280655E2,1.0883447E2,1.842691E2,9.082001E1,3.770542E2,4.1670947E2,6.8879745E1,4.286859E1,0E0,1.2717163E1,2.0024414E0,8.1976555E1,1.2377426E2,8.507773E1,1.18974365E2,6.48313E1,5.2159637E1,1.3096692E2,7.28009E1,5.7246864E1,2.5619788E2,6.082782E1,2.0477759E2,2.1597345E2,6.270051E1,0E0,2.2064575E1,6.2457127E1,6.9147644E0,0E0,6.09375E-1,1.6031036E1,0E0,8.5715485E-1,6.808377E1,2.9661194E1,1.0877211E2,1.416658E2,1.5631226E1,4.2702423E1,5.5218407E1,9.4991455E0,0E0,0E0,0E0,0E0,0E0,0E0,0E0,0E0,0E0,0E0,0E0,0E0,0E0,0E0,0E0,0E0,0E0,0E0,0E0,0E0,0E0,0E0,0E0,0E0,0E0,0E0,0E0,0E0,0E0,0E0,0E0,0E0,0E0,0E0,0E0,0E0,0E0,0E0,0E0,0E0,0E0,0E0,0E0,0E0,0E0,0E0],"parents":[2147483647,0,0,1,1,2,2,3,3,4,4,5,5,6,6,7,7,8,8,9,9,10,10,11,11,13,13,14,14,15,15,16,16,17,17,18,18,19,19,20,20,22,22,23,23,24,24,25,25,26,26,27,27,28,28,29,29,30,30,31,31,32,32,33,33,34,34,35,35,36,36,37,37,39,39,40,40,41,41,43,43,44,44,46,46,47,47,48,48,49,49,50,50,51,51,52,52,53,53,54,54],"right_children":[2,4,6,8,10,12,14,16,18,20,22,24,-1,26,28,30,32,34,36,38,40,-1,42,44,46,48,50,52,54,56,58,60,62,64,66,68,70,72,-1,74,76,78,-1,80,82,-1,84,86,88,90,92,94,96,98,100,-1,-1,-1,-1,-1,-1,-1,-1,-1,-1,-1,-1,-1,-1,-1,-1,-1,-1,-1,-1,-1,-1,-1,-1,-1,-1,-1,-1,-1,-1,-1,-1,-1,-1,-1,-1,-1,-1,-1,-1,-1,-1,-1,-1,-1,-1],"split_conditions":[1E6,3.349E3,2.73E2,1E0,1E0,1.92388E5,3.6E1,5.4674E4,1E3,1.44E2,1E0,1.475096E6,-1.6980592E-2,7.62E2,5.4E2,1.2E1,2.36658E5,1.63E2,1.7E1,7.50849E5,7.517E3,-1.1774343E-2,8.984E5,5.4674E4,2.3E1,3E0,6.849E3,1.733E3,6.37E3,2.8E1,1E0,2.01E2,4.74418E5,2.1E1,6.91E2,1.14E5,1.9638E4,1.16E2,-1.9240491E-2,1.345E3,2.4E2,8.4E1,-1.1774343E-2,1.177E6,8E0,-1.85837E-2,5.9E1,1.751506E6,3.85815E5,5E1,2E0,6.09804E5,6.55E2,1E0,2.0994E4,1.1916941E-2,-1.7597537E-2,6.6565443E-3,1.8240183E-3,-7.4637085E-3,-2.039338E-2,2.2791E-3,-9.61478E-3,2.9431703E-3,-4.4522006E-3,3.5079345E-3,1.22630615E-2,-1.2011686E-2,-6.4409655E-3,-8.6392E-3,2.5919112E-3,5.3853244E-3,-1.8989941E-2,1.2546915E-2,-1.4592094E-2,-1.8807227E-2,6.9882683E-3,7.642691E-3,1.4332994E-2,1.6775234E-2,1.3906011E-2,1.4644818E-2,-1.2693767E-2,1.7169422E-2,1.0441712E-2,2.9274928E-3,-1.9633638E-2,1.2297864E-2,-1.5770782E-2,1.688114E-3,-1.584775E-2,-2.0055678E-2,3.6692205E-3,1.3890795E-2,-1.2693767E-2,7.695574E-3,2.4098101E-4,1.2316377E-2,-8.207779E-3,1.1142905E-2,1.4746642E-2],"split_indices":[7,2,2,6,4,0,5,0,7,5,0,7,0,2,5,2,0,4,5,7,2,0,7,0,5,5,0,2,0,3,1,7,0,2,4,7,0,5,0,6,5,5,0,7,5,0,5,7,0,6,5,0,6,0,0,0,0,0,0,0,0,0,0,0,0,0,0,0,0,0,0,0,0,0,0,0,0,0,0,0,0,0,0,0,0,0,0,0,0,0,0,0,0,0,0,0,0,0,0,0,0],"split_type":[0,0,0,0,0,0,0,0,0,0,0,0,0,0,0,0,0,0,0,0,0,0,0,0,0,0,0,0,0,0,0,0,0,0,0,0,0,0,0,0,0,0,0,0,0,0,0,0,0,0,0,0,0,0,0,0,0,0,0,0,0,0,0,0,0,0,0,0,0,0,0,0,0,0,0,0,0,0,0,0,0,0,0,0,0,0,0,0,0,0,0,0,0,0,0,0,0,0,0,0,0],"sum_hessian":[2.0676275E4,1.6471184E4,4.205091E3,1.5502924E4,9.6825964E2,9.4848267E2,3.2566084E3,3.4417656E3,1.2061158E4,7.182702E2,2.4998941E2,9.4424207E2,4.240639E0,1.1168263E3,2.139782E3,2.6535515E3,7.8821436E2,8.483822E3,3.5773357E3,3.1542798E2,4.0284222E2,1.2458342E0,2.4874358E2,9.041686E2,4.0073437E1,4.294945E2,6.8733185E2,1.3140061E3,8.257759E2,3.84704E2,2.2688474E3,5.805716E2,2.0764273E2,8.072458E3,4.1136444E2,2.8404897E3,7.3684607E2,3.036989E2,1.1729088E1,2.2368231E2,1.7915991E2,2.4749774E2,1.2458342E0,8.446491E2,5.95195E1,7.9848137E0,3.2088623E1,7.824251E1,3.51252E2,1.4177444E2,5.455574E2,3.6778824E2,9.462179E2,5.0595123E1,7.751807E2,3.7946494E2,5.239064E0,1.0155372E3,1.2533103E3,5.336459E2,4.6925728E1,1.5384947E2,5.379326E1,4.986522E2,7.5738057E3,3.043391E2,1.0702532E2,1.7879323E3,1.0525574E3,2.6864972E2,4.6819635E2,2.9371716E2,9.981755E0,2.2143837E2,2.2439375E0,8.983282E0,1.7017664E2,2.0554672E1,2.2694307E2,8.024132E2,4.2235897E1,5.8024178E1,1.4953237E0,2.293609E1,9.152534E0,6.2269875E1,1.5972632E1,3.4825934E2,2.992662E0,7.892625E1,6.2848198E1,2.5458242E1,5.200991E2,3.6629294E2,1.4953237E0,8.6178955E2,8.4428345E1,2.6446842E1,2.4148281E1,1.0132101E2,6.7385974E2],"tree_param":{"num_deleted":"0","num_feature":"8","num_nodes":"101","size_leaf_vector":"1"}},{"base_weights":[3.410013E-4,-2.5627282E-1,1.0065935E0,-3.2502186E-1,8.449218E-1,1.5850669E0,8.378411E-1,2.398023E-1,-4.8610878E-1,6.729209E-1,1.334842E0,1.6015532E0,-1.6833259E-2,4.0656373E-1,1.06279E0,5.0293404E-1,-6.447886E-1,-3.4829596E-1,-8.126777E-1,3.5474172E-1,9.207109E-1,-1.1704816E-2,1.352061E0,1.6341376E0,8.449239E-1,9.402164E-1,7.2524585E-2,8.8397354E-1,1.34609E0,1.137E0,3.950651E-1,-8.4528637E-1,-8.25526E-2,-3.9539972E-1,5.755628E-1,-9.8453665E-1,-1.4939506E-1,4.4808826E-1,-1.9050501E-2,1.2105187E0,5.544398E-1,1.3694532E0,-1.1704816E-2,1.6515117E0,1.3644172E0,-1.8406646E-2,1.550321E0,-1.8513611E-1,1.1910235E0,-6.080152E-1,2.5025758E-1,1.3632451E0,6.966016E-1,2.5277632E-1,1.4171144E0,1.18134E-2,-1.7439075E-2,4.181402E-3,-2.0477492E-2,-7.3856465E-3,-2.0179655E-2,2.2569E-3,-9.5150145E-3,4.9811737E-3,-4.303035E-3,3.4740614E-3,1.2157795E-2,-1.1883895E-2,-6.3738637E-3,-8.548563E-3,2.5666307E-3,5.334354E-3,-1.8804943E-2,1.2439179E-2,-1.4484059E-2,-1.8625816E-2,6.923502E-3,7.575296E-3,1.4213525E-2,1.6641162E-2,1.3791446E-2,1.4524948E-2,-1.2612618E-2,1.7038792E-2,1.03578875E-2,2.8994214E-3,-1.94357E-2,1.2191676E-2,-1.5644107E-2,1.6716804E-3,-1.5680654E-2,-1.9849043E-2,3.6338016E-3,1.3773932E-2,-1.2612618E-2,7.6245395E-3,2.3860345E-4,1.2213641E-2,-8.124926E-3,1.3233524E-2,1.5756885E-2],"categories":[],"categories_nodes":[],"categories_segments":[],"categories_sizes":[],"default_left":[0,0,0,0,0,0,0,0,0,0,0,0,0,0,0,0,0,0,0,0,0,0,0,0,0,0,0,0,0,0,0,0,0,0,0,0,0,0,0,0,0,0,0,0,0,0,0,0,0,0,0,0,0,0,0,0,0,0,0,0,0,0,0,0,0,0,0,0,0,0,0,0,0,0,0,0,0,0,0,0,0,0,0,0,0,0,0,0,0,0,0,0,0,0,0,0,0,0,0,0,0],"id":5,"left_children":[1,3,5,7,9,11,13,15,17,19,21,23,-1,25,27,29,31,33,35,37,39,-1,41,43,45,47,49,51,53,55,57,59,61,63,65,67,69,71,-1,73,75,77,-1,79,81,-1,83,85,87,89,91,93,95,97,99,-1,-1,-1,-1,-1,-1,-1,-1,-1,-1,-1,-1,-1,-1,-1,-1,-1,-1,-1,-1,-1,-1,-1,-1,-1,-1,-1,-1,-1,-1,-1,-1,-1,-1,-1,-1,-1,-1,-1,-1,-1,-1,-1,-1,-1,-1],"loss_changes":[5.3386816E3,1.2474496E3,4.0878418E2,1.4109946E3,8.069971E1,5.375952E1,3.153047E2,8.0143567E2,5.427449E2,5.6338745E1,1.2393463E1,2.1878662E1,0E0,1.9909122E2,1.07131836E2,1.8102106E2,8.892874E1,3.6955188E2,4.0793945E2,6.757417E1,4.215213E1,0E0,1.2542816E1,1.9799805E0,8.056555E1,1.2159305E2,8.3394424E1,1.1702991E2,6.3742798E1,5.126776E1,1.2875638E2,7.132971E1,5.6099182E1,2.5207349E2,5.9776672E1,2.0044165E2,2.115922E2,6.1530273E1,0E0,2.1727875E1,6.1306232E1,6.802948E0,0E0,6.022949E-1,1.5805634E1,0E0,8.449631E-1,6.675835E1,2.918805E1,1.06541985E2,1.3887804E2,1.540979E1,4.1915894E1,5.420458E1,9.436279E0,0E0,0E0,0E0,0E0,0E0,0E0,0E0,0E0,0E0,0E0,0E0,0E0,0E0,0E0,0E0,0E0,0E0,0E0,0E0,0E0,0E0,0E0,0E0,0E0,0E0,0E0,0E0,0E0,0E0,0E0,0E0,0E0,0E0,0E0,0E0,0E0,0E0,0E0,0E0,0E0,0E0,0E0,0E0,0E0,0E0,0E0],"parents":[2147483647,0,0,1,1,2,2,3,3,4,4,5,5,6,6,7,7,8,8,9,9,10,10,11,11,13,13,14,14,15,15,16,16,17,17,18,18,19,19,20,20,22,22,23,23,24,24,25,25,26,26,27,27,28,28,29,29,30,30,31,31,32,32,33,33,34,34,35,35,36,36,37,37,39,39,40,40,41,41,43,43,44,44,46,46,47,47,48,48,49,49,50,50,51,51,52,52,53,53,54,54],"right_children":[2,4,6,8,10,12,14,16,18,20,22,24,-1,26,28,30,32,34,36,38,40,-1,42,44,46,48,50,52,54,56,58,60,62,64,66,68,70,72,-1,74,76,78,-1,80,82,-1,84,86,88,90,92,94,96,98,100,-1,-1,-1,-1,-1,-1,-1,-1,-1,-1,-1,-1,-1,-1,-1,-1,-1,-1,-1,-1,-1,-1,-1,-1,-1,-1,-1,-1,-1,-1,-1,-1,-1,-1,-1,-1,-1,-1,-1,-1,-1,-1,-1,-1,-1,-1],"split_conditions":[1E6,3.349E3,2.73E2,1E0,1E0,1.92388E5,3.6E1,5.4674E4,1E3,1.44E2,1E0,1.475096E6,-1.6833259E-2,7.62E2,5.4E2,1.2E1,2.36658E5,1.63E2,1.7E1,7.50849E5,7.517E3,-1.1704816E-2,8.984E5,5.4674E4,2.3E1,3E0,6.849E3,1.733E3,6.37E3,2.8E1,2.8E1,2.01E2,4.74418E5,1E0,6.91E2,1.14E5,1.9638E4,1.16E2,-1.9050501E-2,1.345E3,2.4E2,8.4E1,-1.1704816E-2,1.177E6,8E0,-1.8406646E-2,5.9E1,1.751506E6,3.85815E5,5E1,2E0,6.09804E5,6.55E2,1E0,7E0,1.18134E-2,-1.7439075E-2,4.181402E-3,-2.0477492E-2,-7.3856465E-3,-2.0179655E-2,2.2569E-3,-9.5150145E-3,4.9811737E-3,-4.303035E-3,3.4740614E-3,1.2157795E-2,-1.1883895E-2,-6.3738637E-3,-8.548563E-3,2.5666307E-3,5.334354E-3,-1.8804943E-2,1.2439179E-2,-1.4484059E-2,-1.8625816E-2,6.923502E-3,7.575296E-3,1.4213525E-2,1.6641162E-2,1.3791446E-2,1.4524948E-2,-1.2612618E-2,1.7038792E-2,1.03578875E-2,2.8994214E-3,-1.94357E-2,1.2191676E-2,-1.5644107E-2,1.6716804E-3,-1.5680654E-2,-1.9849043E-2,3.6338016E-3,1.3773932E-2,-1.2612618E-2,7.6245395E-3,2.3860345E-4,1.2213641E-2,-8.124926E-3,1.3233524E-2,1.5756885E-2],"split_indices":[7,2,2,6,4,0,5,0,7,5,0,7,0,2,5,2,0,4,5,7,2,0,7,0,5,5,0,2,0,3,3,7,0,0,4,7,0,5,0,6,5,5,0,7,5,0,5,7,0,6,5,0,6,0,4,0,0,0,0,0,0,0,0,0,0,0,0,0,0,0,0,0,0,0,0,0,0,0,0,0,0,0,0,0,0,0,0,0,0,0,0,0,0,0,0,0,0,0,0,0,0],"split_type":[0,0,0,0,0,0,0,0,0,0,0,0,0,0,0,0,0,0,0,0,0,0,0,0,0,0,0,0,0,0,0,0,0,0,0,0,0,0,0,0,0,0,0,0,0,0,0,0,0,0,0,0,0,0,0,0,0,0,0,0,0,0,0,0,0,0,0,0,0,0,0,0,0,0,0,0,0,0,0,0,0,0,0,0,0,0,0,0,0,0,0,0,0,0,0,0,0,0,0,0,0],"sum_hessian":[2.067307E4,1.6472906E4,4.200164E3,1.5505577E4,9.67329E2,9.466634E2,3.253501E3,3.4407336E3,1.2064844E4,7.1772424E2,2.4960477E2,9.424197E2,4.243715E0,1.1162355E3,2.1372654E3,2.6522292E3,7.885045E2,8.485859E3,3.5789849E3,3.1529532E2,4.0242892E2,1.2466382E0,2.4835812E2,9.023979E2,4.002179E1,4.2902347E2,6.8721204E2,1.3127739E3,8.244914E2,3.8421695E2,2.2680122E3,5.808614E2,2.076431E2,8.0747334E3,4.111254E2,2.8421016E3,7.3688324E2,3.0355777E2,1.1737528E1,2.2337839E2,1.7905055E2,2.4711148E2,1.2466382E0,8.4297485E2,5.9423065E1,7.9905925E0,3.2031197E1,7.823787E1,3.507856E2,1.4180803E2,5.45404E2,3.672144E2,9.455596E2,5.057191E1,7.739195E2,3.789741E2,5.242869E0,2.2476099E3,2.0402344E1,5.3390247E2,4.6958908E1,1.5381906E2,5.382403E1,3.0306912E2,7.7716646E3,3.0424353E2,1.0688184E2,1.7890914E3,1.0530101E3,2.68793E2,4.6809027E2,2.9356882E2,9.9889555E0,2.2113286E2,2.2455187E0,8.989773E0,1.7006078E2,2.053914E1,2.2657234E2,8.008053E2,4.2169525E1,5.7926743E1,1.4963238E0,2.2888714E1,9.142482E0,6.2253796E1,1.598407E1,3.477908E2,2.9948113E0,7.891487E1,6.2893166E1,2.5476355E1,5.199276E2,3.6571805E2,1.4963238E0,8.611329E2,8.442668E1,2.6411198E1,2.4160715E1,4.922228E2,2.8169672E2],"tree_param":{"num_deleted":"0","num_feature":"8","num_nodes":"101","size_leaf_vector":"1"}},{"base_weights":[3.3604386E-4,-2.536939E-1,9.977719E-1,-3.2172537E-1,8.3727264E-1,1.5724554E0,8.3029824E-1,2.3746505E-1,-4.8110908E-1,6.666613E-1,1.3236333E0,1.5888467E0,-1.6689196E-2,4.026839E-1,1.0534853E0,4.9815258E-1,-6.3817286E-1,-3.4472954E-1,-8.0422443E-1,3.5124794E-1,9.1245264E-1,-1.1636148E-2,1.3407694E0,1.6212095E0,8.378557E-1,9.3184894E-1,7.177065E-2,8.759988E-1,1.334865E0,1.1271129E0,3.9125386E-1,-8.365013E-1,-8.1761844E-2,-3.8370553E-1,7.491365E-1,-9.74199E-1,-1.4790311E-1,4.4377688E-1,-1.8865688E-2,1.2001144E0,5.4918027E-1,1.3580781E0,-1.1636148E-2,1.6384879E0,1.3530931E0,-1.8234147E-2,1.5384859E0,-1.8351027E-1,1.1807489E0,-6.019239E-1,2.4779893E-1,1.3518392E0,6.9014007E-1,2.50458E-1,1.4053957E0,1.1711441E-2,-1.7284347E-2,6.5584662E-3,1.7660842E-3,-7.3086405E-3,-1.9972336E-2,2.2349218E-3,-9.416761E-3,4.845709E-3,-4.1720076E-3,-1.9436803E-2,8.262146E-3,-1.1758383E-2,-6.3076187E-3,-8.459232E-3,2.5415986E-3,5.2839136E-3,-1.8624868E-2,1.233317E-2,-1.4377906E-2,-1.844917E-2,6.8594567E-3,7.508655E-3,1.4096271E-2,1.6510164E-2,1.3678919E-2,1.4407354E-2,-1.2532601E-2,1.6911248E-2,1.0275155E-2,2.8716244E-3,-1.924334E-2,1.2087158E-2,-1.5519934E-2,1.6554105E-3,-1.5517327E-2,-1.9648429E-2,3.5987368E-3,1.3659158E-2,-1.2532601E-2,5.85371E-3,1.1150113E-2,1.2112502E-2,-8.043205E-3,1.0924194E-2,1.450786E-2],"categories":[],"categories_nodes":[],"categories_segments":[],"categories_sizes":[],"default_left":[0,0,0,0,0,0,0,0,0,0,0,0,0,0,0,0,0,0,0,0,0,0,0,0,0,0,0,0,0,0,0,0,0,0,0,0,0,0,0,0,0,0,0,0,0,0,0,0,0,0,0,0,0,0,0,0,0,0,0,0,0,0,0,0,0,0,0,0,0,0,0,0,0,0,0,0,0,0,0,0,0,0,0,0,0,0,0,0,0,0,0,0,0,0,0,0,0,0,0,0,0],"id":6,"left_children":[1,3,5,7,9,11,13,15,17,19,21,23,-1,25,27,29,31,33,35,37,39,-1,41,43,45,47,49,51,53,55,57,59,61,63,65,67,69,71,-1,73,75,77,-1,79,81,-1,83,85,87,89,91,93,95,97,99,-1,-1,-1,-1,-1,-1,-1,-1,-1,-1,-1,-1,-1,-1,-1,-1,-1,-1,-1,-1,-1,-1,-1,-1,-1,-1,-1,-1,-1,-1,-1,-1,-1,-1,-1,-1,-1,-1,-1,-1,-1,-1,-1,-1,-1,-1],"loss_changes":[5.2376577E3,1.223067E3,4.025337E2,1.3823618E3,7.938727E1,5.289917E1,3.0986743E2,7.8570526E2,5.3157275E2,5.535492E1,1.2224121E1,2.1523926E1,0E0,1.954593E2,1.0548657E2,1.7785791E2,8.708386E1,3.6220502E2,3.99396E2,6.630134E1,4.145395E1,0E0,1.2371796E1,1.9592285E0,7.918822E1,1.1945917E2,8.174773E1,1.1514288E2,6.268152E1,5.0394775E1,1.2870157E2,6.9918365E1,5.4977013E1,2.3860986E2,6.2296036E1,1.9624487E2,2.0730763E2,6.0388134E1,0E0,2.1397614E1,6.0182133E1,6.6950684E0,0E0,5.969238E-1,1.5584648E1,0E0,8.338547E-1,6.547032E1,2.8724213E1,1.0437457E2,1.361653E2,1.5192383E1,4.145175E1,5.3212315E1,9.404907E0,0E0,0E0,0E0,0E0,0E0,0E0,0E0,0E0,0E0,0E0,0E0,0E0,0E0,0E0,0E0,0E0,0E0,0E0,0E0,0E0,0E0,0E0,0E0,0E0,0E0,0E0,0E0,0E0,0E0,0E0,0E0,0E0,0E0,0E0,0E0,0E0,0E0,0E0,0E0,0E0,0E0,0E0,0E0,0E0,0E0,0E0],"parents":[2147483647,0,0,1,1,2,2,3,3,4,4,5,5,6,6,7,7,8,8,9,9,10,10,11,11,13,13,14,14,15,15,16,16,17,17,18,18,19,19,20,20,22,22,23,23,24,24,25,25,26,26,27,27,28,28,29,29,30,30,31,31,32,32,33,33,34,34,35,35,36,36,37,37,39,39,40,40,41,41,43,43,44,44,46,46,47,47,48,48,49,49,50,50,51,51,52,52,53,53,54,54],"right_children":[2,4,6,8,10,12,14,16,18,20,22,24,-1,26,28,30,32,34,36,38,40,-1,42,44,46,48,50,52,54,56,58,60,62,64,66,68,70,72,-1,74,76,78,-1,80,82,-1,84,86,88,90,92,94,96,98,100,-1,-1,-1,-1,-1,-1,-1,-1,-1,-1,-1,-1,-1,-1,-1,-1,-1,-1,-1,-1,-1,-1,-1,-1,-1,-1,-1,-1,-1,-1,-1,-1,-1,-1,-1,-1,-1,-1,-1,-1,-1,-1,-1,-1,-1,-1],"split_conditions":[1E6,3.349E3,2.73E2,1E0,1E0,1.92388E5,3.6E1,5.4674E4,1E3,1.44E2,1E0,1.475096E6,-1.6689196E-2,7.62E2,5.4E2,1.2E1,2.36658E5,2.45E2,1.7E1,7.50849E5,7.517E3,-1.1636148E-2,8.984E5,5.4674E4,2.3E1,3E0,6.849E3,1.733E3,6.37E3,2.8E1,1E0,2.01E2,4.74418E5,1E0,1E0,1.14E5,1.9638E4,1.16E2,-1.8865688E-2,1.345E3,2.4E2,8.4E1,-1.1636148E-2,1.177E6,8E0,-1.8234147E-2,5.9E1,1.751506E6,3.85815E5,5E1,2E0,6.09804E5,2.1E1,1E0,2.0994E4,1.1711441E-2,-1.7284347E-2,6.5584662E-3,1.7660842E-3,-7.3086405E-3,-1.9972336E-2,2.2349218E-3,-9.416761E-3,4.845709E-3,-4.1720076E-3,-1.9436803E-2,8.262146E-3,-1.1758383E-2,-6.3076187E-3,-8.459232E-3,2.5415986E-3,5.2839136E-3,-1.8624868E-2,1.233317E-2,-1.4377906E-2,-1.844917E-2,6.8594567E-3,7.508655E-3,1.4096271E-2,1.6510164E-2,1.3678919E-2,1.4407354E-2,-1.2532601E-2,1.6911248E-2,1.0275155E-2,2.8716244E-3,-1.924334E-2,1.2087158E-2,-1.5519934E-2,1.6554105E-3,-1.5517327E-2,-1.9648429E-2,3.5987368E-3,1.3659158E-2,-1.2532601E-2,5.85371E-3,1.1150113E-2,1.2112502E-2,-8.043205E-3,1.0924194E-2,1.450786E-2],"split_indices":[7,2,2,6,4,0,5,0,7,5,0,7,0,2,5,2,0,4,5,7,2,0,7,0,5,5,0,2,0,3,1,7,0,0,5,7,0,5,0,6,5,5,0,7,5,0,5,7,0,6,5,0,4,0,0,0,0,0,0,0,0,0,0,0,0,0,0,0,0,0,0,0,0,0,0,0,0,0,0,0,0,0,0,0,0,0,0,0,0,0,0,0,0,0,0,0,0,0,0,0,0],"split_type":[0,0,0,0,0,0,0,0,0,0,0,0,0,0,0,0,0,0,0,0,0,0,0,0,0,0,0,0,0,0,0,0,0,0,0,0,0,0,0,0,0,0,0,0,0,0,0,0,0,0,0,0,0,0,0,0,0,0,0,0,0,0,0,0,0,0,0,0,0,0,0,0,0,0,0,0,0,0,0,0,0,0,0,0,0,0,0,0,0,0,0,0,0,0,0,0,0,0,0,0,0],"sum_hessian":[2.0669275E4,1.6474297E4,4.1949775E3,1.5507944E4,9.663534E2,9.4473706E2,3.2502405E3,3.439639E3,1.2068306E4,7.1715283E2,2.4920055E2,9.4049084E2,4.2461624E0,1.115605E3,2.1346355E3,2.650874E3,7.887648E2,8.487848E3,3.5804578E3,3.1515588E2,4.0199695E2,1.2473526E0,2.479532E2,9.005253E2,3.996552E1,4.2852786E2,6.870771E2,1.3114948E3,8.2314075E2,3.8370776E2,2.2671663E3,5.811241E2,2.0764064E2,8.196446E3,2.9140158E2,2.843549E3,7.369087E2,3.0341214E2,1.1743751E1,2.2306027E2,1.7893668E2,2.4670584E2,1.2473526E0,8.412039E2,5.932142E1,7.9949613E0,3.1970556E1,7.822999E1,3.5029788E2,1.4183342E2,5.4524365E2,3.666118E2,9.4488293E2,5.054618E1,7.725946E2,3.7846194E2,5.245841E0,1.01451776E3,1.2526486E3,5.3414197E2,4.6982155E1,1.5378857E2,5.3852062E1,3.0394727E2,7.8924985E3,7.434975E0,2.8396658E2,1.7901122E3,1.0534369E3,2.68925E2,4.679837E2,2.9341782E2,9.994317E0,2.2081342E2,2.2468529E0,8.99464E0,1.6994203E2,2.052317E1,2.2618268E2,7.991041E2,4.209984E1,5.782422E1,1.4971988E0,2.283852E1,9.132036E0,6.223762E1,1.5992366E1,3.473013E2,2.9965773E0,7.89035E1,6.2929928E1,2.5489248E1,5.197544E2,3.651146E2,1.4971988E0,7.598814E2,1.8500154E2,2.6373947E1,2.4172232E1,1.0103093E2,6.7156366E2],"tree_param":{"num_deleted":"0","num_feature":"8","num_nodes":"101","size_leaf_vector":"1"}},{"base_weights":[3.3141294E-4,-2.511465E-1,9.8908746E-1,-3.1846893E-1,8.2973105E-1,1.5601226E0,8.228606E-1,2.3516238E-1,-4.7617304E-1,6.6048324E-1,1.3126218E0,1.5764213E0,-1.65483E-2,3.9885485E-1,1.0443143E0,4.9343288E-1,-6.316484E-1,-3.41206E-1,-7.958975E-1,3.4779578E-1,9.0431035E-1,-1.1568325E-2,1.3296767E0,1.6085675E0,8.30941E-1,9.236083E-1,7.102587E-2,8.6812526E-1,1.3238388E0,1.1173764E0,3.8749295E-1,-8.278453E-1,-8.098005E-2,-3.8740227E-1,5.6629115E-1,-9.640245E-1,-1.4642847E-1,4.3951342E-1,-1.8685842E-2,1.1898751E0,5.439841E-1,1.3469038E0,-1.1568325E-2,1.6257557E0,1.3419794E0,-1.8066028E-2,1.5268933E0,-1.0201479E0,1.0635782E0,-5.9592736E-1,2.4536736E-1,1.3406342E0,6.8375176E-1,2.4817349E-1,1.3938879E0,1.1611019E-2,-1.7133217E-2,4.103818E-3,-2.0312803E-2,-7.2326637E-3,-1.9771136E-2,2.213154E-3,-9.319978E-3,2.9758418E-3,-4.3250867E-3,3.414029E-3,1.1984718E-2,-1.1635075E-2,-6.2422114E-3,-8.371181E-3,2.5168138E-3,5.2339993E-3,-1.8449536E-2,1.2228836E-2,-1.4273581E-2,-1.8277096E-2,6.79612E-3,7.4427556E-3,1.39811635E-2,1.6382132E-2,1.3568364E-2,1.4291962E-2,-1.2453689E-2,1.6786685E-2,1.0193492E-2,-2.0327792E-2,1.6209302E-2,1.1151776E-2,-1.79517E-2,1.6392975E-3,-1.535763E-2,-1.9453581E-2,3.5640216E-3,1.3546405E-2,-1.2453689E-2,7.4907895E-3,1.708146E-4,1.2012914E-2,-7.962591E-3,1.3005493E-2,1.5518525E-2],"categories":[],"categories_nodes":[],"categories_segments":[],"categories_sizes":[],"default_left":[0,0,0,0,0,0,0,0,0,0,0,0,0,0,0,0,0,0,0,0,0,0,0,0,0,0,0,0,0,0,0,0,0,0,0,0,0,0,0,0,0,0,0,0,0,0,0,0,0,0,0,0,0,0,0,0,0,0,0,0,0,0,0,0,0,0,0,0,0,0,0,0,0,0,0,0,0,0,0,0,0,0,0,0,0,0,0,0,0,0,0,0,0,0,0,0,0,0,0,0,0],"id":7,"left_children":[1,3,5,7,9,11,13,15,17,19,21,23,-1,25,27,29,31,33,35,37,39,-1,41,43,45,47,49,51,53,55,57,59,61,63,65,67,69,71,-1,73,75,77,-1,79,81,-1,83,85,87,89,91,93,95,97,99,-1,-1,-1,-1,-1,-1,-1,-1,-1,-1,-1,-1,-1,-1,-1,-1,-1,-1,-1,-1,-1,-1,-1,-1,-1,-1,-1,-1,-1,-1,-1,-1,-1,-1,-1,-1,-1,-1,-1,-1,-1,-1,-1,-1,-1,-1],"loss_changes":[5.1388257E3,1.1992026E3,3.9648926E2,1.3543756E3,7.810974E1,5.205835E1,3.0454834E2,7.703138E2,5.206848E2,5.439322E1,1.2057983E1,2.1177002E1,0E0,1.9190819E2,1.0389453E2,1.7476544E2,8.528363E1,3.56177E2,3.9107227E2,6.5060135E1,4.0773376E1,0E0,1.22039795E1,1.9401855E0,7.784345E1,1.1780426E2,8.0136795E1,1.1331122E2,6.1645752E1,4.9540253E1,1.263584E2,6.856348E1,5.387955E1,2.4978088E2,5.812114E1,1.9217896E2,2.0311755E2,5.927322E1,0E0,2.10737E1,5.908395E1,6.591034E0,0E0,5.9228516E-1,1.5367958E1,0E0,8.237457E-1,8.173137E1,6.11062E1,1.0226738E2,1.3352472E2,1.4979187E1,4.1152344E1,5.2241043E1,9.367432E0,0E0,0E0,0E0,0E0,0E0,0E0,0E0,0E0,0E0,0E0,0E0,0E0,0E0,0E0,0E0,0E0,0E0,0E0,0E0,0E0,0E0,0E0,0E0,0E0,0E0,0E0,0E0,0E0,0E0,0E0,0E0,0E0,0E0,0E0,0E0,0E0,0E0,0E0,0E0,0E0,0E0,0E0,0E0,0E0,0E0,0E0],"parents":[2147483647,0,0,1,1,2,2,3,3,4,4,5,5,6,6,7,7,8,8,9,9,10,10,11,11,13,13,14,14,15,15,16,16,17,17,18,18,19,19,20,20,22,22,23,23,24,24,25,25,26,26,27,27,28,28,29,29,30,30,31,31,32,32,33,33,34,34,35,35,36,36,37,37,39,39,40,40,41,41,43,43,44,44,46,46,47,47,48,48,49,49,50,50,51,51,52,52,53,53,54,54],"right_children":[2,4,6,8,10,12,14,16,18,20,22,24,-1,26,28,30,32,34,36,38,40,-1,42,44,46,48,50,52,54,56,58,60,62,64,66,68,70,72,-1,74,76,78,-1,80,82,-1,84,86,88,90,92,94,96,98,100,-1,-1,-1,-1,-1,-1,-1,-1,-1,-1,-1,-1,-1,-1,-1,-1,-1,-1,-1,-1,-1,-1,-1,-1,-1,-1,-1,-1,-1,-1,-1,-1,-1,-1,-1,-1,-1,-1,-1,-1,-1,-1,-1,-1,-1,-1],"split_conditions":[1E6,3.349E3,2.73E2,1E0,1E0,1.92388E5,3.6E1,5.4674E4,1E3,1.44E2,1E0,1.475096E6,-1.65483E-2,7.62E2,5.4E2,1.2E1,2.36658E5,1.63E2,1.7E1,7.50849E5,7.517E3,-1.1568325E-2,8.984E5,5.4674E4,2.3E1,1E0,6.849E3,1.733E3,6.37E3,2.8E1,2.8E1,2.01E2,4.74418E5,2.1E1,6.91E2,1.14E5,1.9638E4,1.16E2,-1.8685842E-2,1.345E3,2.4E2,8.4E1,-1.1568325E-2,1.177E6,8E0,-1.8066028E-2,5.9E1,7.4E2,3.85815E5,5E1,2E0,6.09804E5,6.55E2,1E0,7E0,1.1611019E-2,-1.7133217E-2,4.103818E-3,-2.0312803E-2,-7.2326637E-3,-1.9771136E-2,2.213154E-3,-9.319978E-3,2.9758418E-3,-4.3250867E-3,3.414029E-3,1.1984718E-2,-1.1635075E-2,-6.2422114E-3,-8.371181E-3,2.5168138E-3,5.2339993E-3,-1.8449536E-2,1.2228836E-2,-1.4273581E-2,-1.8277096E-2,6.79612E-3,7.4427556E-3,1.39811635E-2,1.6382132E-2,1.3568364E-2,1.4291962E-2,-1.2453689E-2,1.6786685E-2,1.0193492E-2,-2.0327792E-2,1.6209302E-2,1.1151776E-2,-1.79517E-2,1.6392975E-3,-1.535763E-2,-1.9453581E-2,3.5640216E-3,1.3546405E-2,-1.2453689E-2,7.4907895E-3,1.708146E-4,1.2012914E-2,-7.962591E-3,1.3005493E-2,1.5518525E-2],"split_indices":[7,2,2,6,4,0,5,0,7,5,0,7,0,2,5,2,0,4,5,7,2,0,7,0,5,5,0,2,0,3,3,7,0,2,4,7,0,5,0,6,5,5,0,7,5,0,5,2,0,6,5,0,6,0,4,0,0,0,0,0,0,0,0,0,0,0,0,0,0,0,0,0,0,0,0,0,0,0,0,0,0,0,0,0,0,0,0,0,0,0,0,0,0,0,0,0,0,0,0,0,0],"split_type":[0,0,0,0,0,0,0,0,0,0,0,0,0,0,0,0,0,0,0,0,0,0,0,0,0,0,0,0,0,0,0,0,0,0,0,0,0,0,0,0,0,0,0,0,0,0,0,0,0,0,0,0,0,0,0,0,0,0,0,0,0,0,0,0,0,0,0,0,0,0,0,0,0,0,0,0,0,0,0,0,0,0,0,0,0,0,0,0,0,0,0,0,0,0,0,0,0,0,0,0,0],"sum_hessian":[2.066488E4,1.647533E4,4.1895513E3,1.5509995E4,9.6533435E2,9.427071E2,3.246844E3,3.4384797E3,1.2071516E4,7.1655695E2,2.4877744E2,9.3845905E2,4.247997E0,1.114936E3,2.131908E3,2.649484E3,7.889959E2,8.489756E3,3.5817598E3,3.1500995E2,4.0154697E2,1.2479786E0,2.4752945E2,8.985543E2,3.9904762E1,4.280085E2,6.869275E2,1.3101832E3,8.217248E2,3.8317722E2,2.2663066E3,5.813605E2,2.076354E2,8.0790635E3,4.1069244E2,2.844837E3,7.369227E2,3.0326215E2,1.1747816E1,2.2272855E2,1.7881842E2,2.4628148E2,1.2479786E0,8.3933954E2,5.9214737E1,7.9979563E0,3.1906805E1,2.8328165E1,3.9968036E2,1.4185085E2,5.4507666E2,3.6598148E2,9.442018E2,5.0518E1,7.712068E2,3.7792923E2,5.248002E0,2.2458843E3,2.0422472E1,5.3436475E2,4.6995758E1,1.53758E2,5.387742E1,4.9879297E2,7.5802705E3,3.0406586E2,1.0662659E2,1.7909987E3,1.0538384E3,2.6904605E2,4.6787668E2,2.9326425E2,9.997889E0,2.2048059E2,2.2479453E0,8.997925E0,1.698205E2,2.0506779E1,2.257747E2,7.973126E2,4.2026943E1,5.7716785E1,1.4979513E0,2.2785597E1,9.121208E0,2.0643457E1,7.6847076E0,3.9319327E2,6.487101E0,7.8892136E1,6.2958717E1,2.5497074E1,5.195796E2,3.6448355E2,1.4979513E0,8.598238E2,8.437799E1,2.6335148E1,2.4182856E1,4.905707E2,2.8063605E2],"tree_param":{"num_deleted":"0","num_feature":"8","num_nodes":"101","size_leaf_vector":"1"}},{"base_weights":[3.269964E-4,-2.4863116E-1,9.8053586E-1,-3.152533E-1,8.2229394E-1,1.5480593E0,8.1552494E-1,2.3287866E-1,-4.712983E-1,6.5438426E-1,1.3018011E0,1.5642674E0,-1.6410464E-2,3.95076E-1,1.0352792E0,4.8875415E-1,-6.252134E-1,-3.3772177E-1,-7.876938E-1,3.4438398E-1,8.9628065E-1,-1.1501331E-2,1.3187766E0,1.596202E0,8.241743E-1,9.154667E-1,7.029012E-2,8.6035264E-1,1.3130109E0,1.107786E0,3.8375875E-1,-8.193153E-1,-8.0206655E-2,-3.8343227E-1,5.6102E-1,-9.54009E-1,-1.4497066E-1,4.3529668E-1,-1.8510768E-2,1.1797955E0,5.3885E-1,1.3359239E0,-1.1501331E-2,1.6205829E-2,1.4040146E0,-1.790213E-2,1.5155345E0,-1.8398623E-1,1.1613948E0,-5.900227E-1,2.4296242E-1,1.3296237E0,6.7743343E-1,2.4592151E-1,1.3825899E0,1.1512086E-2,-1.6985564E-2,6.4622806E-3,1.7094777E-3,-7.1576973E-3,-1.9575804E-2,2.191602E-3,-9.224632E-3,2.9469053E-3,-4.2806263E-3,3.381091E-3,1.1883754E-2,-1.1513911E-2,-6.1776317E-3,-8.284375E-3,2.492274E-3,5.184598E-3,-1.8278755E-2,1.2126126E-2,-1.4171041E-2,-1.8109426E-2,6.7334794E-3,7.37758E-3,1.3868128E-2,1.48757445E-2,-1.5478413E-2,1.6664997E-2,1.0112872E-2,-1.9904343E-2,2.5788364E-3,-1.6609669E-2,1.1881592E-2,1.6233429E-3,-1.5201422E-2,-1.9264264E-2,3.5296518E-3,1.34356115E-2,-1.2375863E-2,5.735196E-3,1.0991241E-2,1.1914834E-2,-7.883061E-3,1.0712075E-2,1.4277958E-2],"categories":[],"categories_nodes":[],"categories_segments":[],"categories_sizes":[],"default_left":[0,0,0,0,0,0,0,0,0,0,0,0,0,0,0,0,0,0,0,0,0,0,0,0,0,0,0,0,0,0,0,0,0,0,0,0,0,0,0,0,0,0,0,0,0,0,0,0,0,0,0,0,0,0,0,0,0,0,0,0,0,0,0,0,0,0,0,0,0,0,0,0,0,0,0,0,0,0,0,0,0,0,0,0,0,0,0,0,0,0,0,0,0,0,0,0,0,0,0],"id":8,"left_children":[1,3,5,7,9,11,13,15,17,19,21,23,-1,25,27,29,31,33,35,37,39,-1,41,43,45,47,49,51,53,55,57,59,61,63,65,67,69,71,-1,73,75,77,-1,-1,79,-1,81,83,85,87,89,91,93,95,97,-1,-1,-1,-1,-1,-1,-1,-1,-1,-1,-1,-1,-1,-1,-1,-1,-1,-1,-1,-1,-1,-1,-1,-1,-1,-1,-1,-1,-1,-1,-1,-1,-1,-1,-1,-1,-1,-1,-1,-1,-1,-1,-1,-1],"loss_changes":[5.042127E3,1.1758447E3,3.9064185E2,1.3269584E3,7.686597E1,5.1236572E1,2.9935107E2,7.552267E2,5.1007715E2,5.3452972E1,1.1894867E1,2.083789E1,0E0,1.8843044E2,1.0235425E2,1.7175208E2,8.352695E1,3.4910388E2,3.8296045E2,6.3849453E1,4.010974E1,0E0,1.2039307E1,1.9299316E0,7.6530136E1,1.1607083E2,7.85606E1,1.11532104E2,6.063513E1,4.8703552E1,1.264845E2,6.726199E1,5.2806282E1,2.4472913E2,5.713498E1,1.8823901E2,1.9901938E2,5.81846E1,0E0,2.0755798E1,5.8010925E1,6.490631E0,0E0,0E0,2.9070023E1,0E0,8.145981E-1,6.3722614E1,2.8434692E1,1.0021801E2,1.3095363E2,1.4770142E1,4.0756775E1,5.1290188E1,9.320068E0,0E0,0E0,0E0,0E0,0E0,0E0,0E0,0E0,0E0,0E0,0E0,0E0,0E0,0E0,0E0,0E0,0E0,0E0,0E0,0E0,0E0,0E0,0E0,0E0,0E0,0E0,0E0,0E0,0E0,0E0,0E0,0E0,0E0,0E0,0E0,0E0,0E0,0E0,0E0,0E0,0E0,0E0,0E0,0E0],"parents":[2147483647,0,0,1,1,2,2,3,3,4,4,5,5,6,6,7,7,8,8,9,9,10,10,11,11,13,13,14,14,15,15,16,16,17,17,18,18,19,19,20,20,22,22,23,23,24,24,25,25,26,26,27,27,28,28,29,29,30,30,31,31,32,32,33,33,34,34,35,35,36,36,37,37,39,39,40,40,41,41,44,44,46,46,47,47,48,48,49,49,50,50,51,51,52,52,53,53,54,54],"right_children":[2,4,6,8,10,12,14,16,18,20,22,24,-1,26,28,30,32,34,36,38,40,-1,42,44,46,48,50,52,54,56,58,60,62,64,66,68,70,72,-1,74,76,78,-1,-1,80,-1,82,84,86,88,90,92,94,96,98,-1,-1,-1,-1,-1,-1,-1,-1,-1,-1,-1,-1,-1,-1,-1,-1,-1,-1,-1,-1,-1,-1,-1,-1,-1,-1,-1,-1,-1,-1,-1,-1,-1,-1,-1,-1,-1,-1,-1,-1,-1,-1,-1,-1],"split_conditions":[1E6,3.349E3,2.73E2,1E0,1E0,1.92388E5,3.6E1,5.4674E4,1E3,1.44E2,1E0,1.475096E6,-1.6410464E-2,7.62E2,5.4E2,1.2E1,2.36658E5,1.63E2,1.7E1,7.50849E5,7.517E3,-1.1501331E-2,8.984E5,2.9086E4,2.3E1,3E0,6.849E3,1.733E3,6.37E3,2.8E1,1E0,2.01E2,4.74418E5,2.1E1,6.91E2,1.14E5,1.9638E4,1.16E2,-1.8510768E-2,1.345E3,2.4E2,8.4E1,-1.1501331E-2,1.6205829E-2,8E0,-1.790213E-2,5.9E1,1.2264E4,2.93E2,5E1,2E0,6.09804E5,2.1E1,1E0,2.0994E4,1.1512086E-2,-1.6985564E-2,6.4622806E-3,1.7094777E-3,-7.1576973E-3,-1.9575804E-2,2.191602E-3,-9.224632E-3,2.9469053E-3,-4.2806263E-3,3.381091E-3,1.1883754E-2,-1.1513911E-2,-6.1776317E-3,-8.284375E-3,2.492274E-3,5.184598E-3,-1.8278755E-2,1.2126126E-2,-1.4171041E-2,-1.8109426E-2,6.7334794E-3,7.37758E-3,1.3868128E-2,1.48757445E-2,-1.5478413E-2,1.6664997E-2,1.0112872E-2,-1.9904343E-2,2.5788364E-3,-1.6609669E-2,1.1881592E-2,1.6233429E-3,-1.5201422E-2,-1.9264264E-2,3.5296518E-3,1.34356115E-2,-1.2375863E-2,5.735196E-3,1.0991241E-2,1.1914834E-2,-7.883061E-3,1.0712075E-2,1.4277958E-2],"split_indices":[7,2,2,6,4,0,5,0,7,5,0,7,0,2,5,2,0,4,5,7,2,0,7,0,5,5,0,2,0,3,1,7,0,2,4,7,0,5,0,6,5,5,0,0,5,0,5,0,2,6,5,0,4,0,0,0,0,0,0,0,0,0,0,0,0,0,0,0,0,0,0,0,0,0,0,0,0,0,0,0,0,0,0,0,0,0,0,0,0,0,0,0,0,0,0,0,0,0,0],"split_type":[0,0,0,0,0,0,0,0,0,0,0,0,0,0,0,0,0,0,0,0,0,0,0,0,0,0,0,0,0,0,0,0,0,0,0,0,0,0,0,0,0,0,0,0,0,0,0,0,0,0,0,0,0,0,0,0,0,0,0,0,0,0,0,0,0,0,0,0,0,0,0,0,0,0,0,0,0,0,0,0,0,0,0,0,0,0,0,0,0,0,0,0,0,0,0,0,0,0,0],"sum_hessian":[2.065983E4,1.647594E4,4.1838916E3,1.5511665E4,9.642733E2,9.4057697E2,3.243315E3,3.4372625E3,1.2074403E4,7.1593726E2,2.4833606E2,9.3632776E2,4.2492323E0,1.1142511E3,2.1290637E3,2.6480637E3,7.891988E2,8.491508E3,3.5828953E3,3.148577E2,4.0107956E2,1.2485175E0,2.4708754E2,8.964881E2,3.983966E1,4.274874E2,6.867637E2,1.3088168E3,8.202471E2,3.82626E2,2.2654377E3,5.815713E2,2.0762753E2,8.081073E3,4.1043442E2,2.8459697E3,7.3692566E2,3.031079E2,1.17497835E1,2.223836E2,1.7869595E2,2.4583902E2,1.2485175E0,7.8896686E2,1.075212E2,7.9996133E0,3.1840046E1,7.818833E1,3.4929907E2,1.4186053E2,5.4490314E2,3.6532437E2,9.434924E2,5.0487453E1,7.697596E2,3.7737662E2,5.2493715E0,1.01345807E3,1.2519797E3,5.345713E2,4.6999996E1,1.5372736E2,5.390018E1,4.9866446E2,7.5824087E3,3.03968E2,1.0646645E2,1.7917543E3,1.0542153E3,2.6915643E2,4.6776926E2,2.931082E2,9.999719E0,2.201348E2,2.2488008E0,8.999671E0,1.6969629E2,2.048998E1,2.2534904E2,1.0504372E2,2.4774795E0,2.2730034E1,9.110011E0,1.4677863E1,6.351047E1,2.7076983E0,3.4659137E2,7.8880775E1,6.297976E1,2.5499975E1,5.1940314E2,3.6382578E2,1.4985828E0,7.588542E2,1.8463821E2,2.6294846E1,2.4192608E1,1.00715965E2,6.6904364E2],"tree_param":{"num_deleted":"0","num_feature":"8","num_nodes":"99","size_leaf_vector":"1"}},{"base_weights":[3.2276407E-4,-2.4614507E-1,9.7210586E-1,-3.1207517E-1,8.1495893E-1,1.5362422E0,8.0828375E-1,2.306284E-1,-4.6648377E-1,6.4836293E-1,1.2911655E0,1.5523618E0,-1.6275592E-2,3.913328E-1,1.0263708E0,4.8413533E-1,-6.188656E-1,-3.3427727E-1,-7.7961E-1,3.410124E-1,8.8836074E-1,-1.1435151E-2,1.3080633E0,1.5840889E0,8.175509E-1,9.074033E-1,6.956294E-2,8.526768E-1,1.3023695E0,1.0983374E0,3.8007376E-1,-8.109082E-1,-7.944167E-2,-3.7209496E-1,7.303297E-1,-9.4414777E-1,-1.4352958E-1,4.3112642E-1,-1.8340284E-2,1.1698713E0,5.337764E-1,1.3251324E0,-1.1435151E-2,1.6011425E0,1.3198924E0,-1.7742297E-2,1.5044026E0,-1.005944E0,1.0456291E0,-5.8420783E-1,2.4058346E-1,1.3188015E0,6.7118615E-1,2.4370174E-1,1.3714896E0,1.14146015E-2,-1.6841268E-2,6.4020436E-3,1.6926683E-3,-7.083718E-3,-1.9386096E-2,2.1702603E-3,-9.130682E-3,4.854397E-3,-4.0515214E-3,-1.9312074E-2,8.068068E-3,-1.0232654E-2,-1.1718371E-3,-8.198788E-3,2.467975E-3,5.1357085E-3,-1.811236E-2,1.2024995E-2,-1.4070239E-2,-1.7945992E-2,6.6715186E-3,7.313115E-3,1.3757102E-2,1.6135758E-2,1.3332879E-2,1.4062062E-2,-1.22799445E-2,1.6546095E-2,1.0033271E-2,-2.0048881E-2,1.6068945E-2,1.0968792E-2,-1.7840201E-2,1.6075411E-3,-1.5048587E-2,-1.9080251E-2,3.495621E-3,1.3326716E-2,-1.2299099E-2,7.36001E-3,1.04891355E-4,1.181822E-2,-7.804584E-3,1.278513E-2,1.5289585E-2],"categories":[],"categories_nodes":[],"categories_segments":[],"categories_sizes":[],"default_left":[0,0,0,0,0,0,0,0,0,0,0,0,0,0,0,0,0,0,0,0,0,0,0,0,0,0,0,0,0,0,0,0,0,0,0,0,0,0,0,0,0,0,0,0,0,0,0,0,0,0,0,0,0,0,0,0,0,0,0,0,0,0,0,0,0,0,0,0,0,0,0,0,0,0,0,0,0,0,0,0,0,0,0,0,0,0,0,0,0,0,0,0,0,0,0,0,0,0,0,0,0],"id":9,"left_children":[1,3,5,7,9,11,13,15,17,19,21,23,-1,25,27,29,31,33,35,37,39,-1,41,43,45,47,49,51,53,55,57,59,61,63,65,67,69,71,-1,73,75,77,-1,79,81,-1,83,85,87,89,91,93,95,97,99,-1,-1,-1,-1,-1,-1,-1,-1,-1,-1,-1,-1,-1,-1,-1,-1,-1,-1,-1,-1,-1,-1,-1,-1,-1,-1,-1,-1,-1,-1,-1,-1,-1,-1,-1,-1,-1,-1,-1,-1,-1,-1,-1,-1,-1,-1],"loss_changes":[4.947435E3,1.1529766E3,3.8497412E2,1.3001527E3,7.565454E1,5.0432373E1,2.9427734E2,7.4046326E2,4.9973755E2,5.2533417E1,1.1734772E1,2.0505371E1,0E0,1.8501247E2,1.0086279E2,1.6880414E2,8.181232E1,3.42255E2,3.7505396E2,6.266831E1,3.9462494E1,0E0,1.18776245E1,1.9206543E0,7.524726E1,1.1423386E2,7.701833E1,1.0980371E2,5.9648193E1,4.7884155E1,1.2412869E2,6.601123E1,5.1756474E1,2.3274512E2,6.0937195E1,1.862146E2,1.9501073E2,5.712148E1,0E0,2.0443878E1,5.6962234E1,6.393738E0,0E0,6.3378906E-1,1.4917755E1,0E0,8.063431E-1,7.980953E1,5.990802E1,9.822427E1,1.2844946E2,1.4564819E1,4.0407776E1,5.03592E1,9.307861E0,0E0,0E0,0E0,0E0,0E0,0E0,0E0,0E0,0E0,0E0,0E0,0E0,0E0,0E0,0E0,0E0,0E0,0E0,0E0,0E0,0E0,0E0,0E0,0E0,0E0,0E0,0E0,0E0,0E0,0E0,0E0,0E0,0E0,0E0,0E0,0E0,0E0,0E0,0E0,0E0,0E0,0E0,0E0,0E0,0E0,0E0],"parents":[2147483647,0,0,1,1,2,2,3,3,4,4,5,5,6,6,7,7,8,8,9,9,10,10,11,11,13,13,14,14,15,15,16,16,17,17,18,18,19,19,20,20,22,22,23,23,24,24,25,25,26,26,27,27,28,28,29,29,30,30,31,31,32,32,33,33,34,34,35,35,36,36,37,37,39,39,40,40,41,41,43,43,44,44,46,46,47,47,48,48,49,49,50,50,51,51,52,52,53,53,54,54],"right_children":[2,4,6,8,10,12,14,16,18,20,22,24,-1,26,28,30,32,34,36,38,40,-1,42,44,46,48,50,52,54,56,58,60,62,64,66,68,70,72,-1,74,76,78,-1,80,82,-1,84,86,88,90,92,94,96,98,100,-1,-1,-1,-1,-1,-1,-1,-1,-1,-1,-1,-1,-1,-1,-1,-1,-1,-1,-1,-1,-1,-1,-1,-1,-1,-1,-1,-1,-1,-1,-1,-1,-1,-1,-1,-1,-1,-1,-1,-1,-1,-1,-1,-1,-1,-1],"split_conditions":[1E6,3.349E3,2.73E2,1E0,1E0,1.92388E5,3.6E1,5.4674E4,1E3,1.44E2,1E0,1.475096E6,-1.6275592E-2,7.62E2,5.4E2,1.2E1,2.36658E5,2.45E2,1.7E1,7.50849E5,7.517E3,-1.1435151E-2,8.984E5,5.4674E4,2.3E1,1E0,6.849E3,1.733E3,6.37E3,2.8E1,1E0,2.01E2,4.74418E5,1E0,1E0,5.99125E5,1.9638E4,1.16E2,-1.8340284E-2,1.345E3,2.4E2,8.4E1,-1.1435151E-2,1.177E6,8E0,-1.7742297E-2,5.9E1,7.4E2,3.85815E5,5E1,2E0,6.09804E5,6.55E2,1E0,7E0,1.14146015E-2,-1.6841268E-2,6.4020436E-3,1.6926683E-3,-7.083718E-3,-1.9386096E-2,2.1702603E-3,-9.130682E-3,4.854397E-3,-4.0515214E-3,-1.9312074E-2,8.068068E-3,-1.0232654E-2,-1.1718371E-3,-8.198788E-3,2.467975E-3,5.1357085E-3,-1.811236E-2,1.2024995E-2,-1.4070239E-2,-1.7945992E-2,6.6715186E-3,7.313115E-3,1.3757102E-2,1.6135758E-2,1.3332879E-2,1.4062062E-2,-1.22799445E-2,1.6546095E-2,1.0033271E-2,-2.0048881E-2,1.6068945E-2,1.0968792E-2,-1.7840201E-2,1.6075411E-3,-1.5048587E-2,-1.9080251E-2,3.495621E-3,1.3326716E-2,-1.2299099E-2,7.36001E-3,1.04891355E-4,1.181822E-2,-7.804584E-3,1.278513E-2,1.5289585E-2],"split_indices":[7,2,2,6,4,0,5,0,7,5,0,7,0,2,5,2,0,4,5,7,2,0,7,0,5,5,0,2,0,3,1,7,0,0,5,7,0,5,0,6,5,5,0,7,5,0,5,2,0,6,5,0,6,0,4,0,0,0,0,0,0,0,0,0,0,0,0,0,0,0,0,0,0,0,0,0,0,0,0,0,0,0,0,0,0,0,0,0,0,0,0,0,0,0,0,0,0,0,0,0,0],"split_type":[0,0,0,0,0,0,0,0,0,0,0,0,0,0,0,0,0,0,0,0,0,0,0,0,0,0,0,0,0,0,0,0,0,0,0,0,0,0,0,0,0,0,0,0,0,0,0,0,0,0,0,0,0,0,0,0,0,0,0,0,0,0,0,0,0,0,0,0,0,0,0,0,0,0,0,0,0,0,0,0,0,0,0,0,0,0,0,0,0,0,0,0,0,0,0,0,0,0,0,0,0],"sum_hessian":[2.0654203E4,1.6476188E4,4.178015E3,1.5513016E4,9.631717E2,9.3834845E2,3.239667E3,3.4359849E3,1.207703E4,7.152947E2,2.4787704E2,9.340986E2,4.2498837E0,1.1135376E3,2.1261294E3,2.6466106E3,7.8937427E2,8.493161E3,3.5838694E3,3.1469937E2,4.005953E2,1.248971E0,2.4662808E2,8.943282E2,3.9770344E1,4.2695154E2,6.865861E2,1.307421E3,8.187083E2,3.820549E2,2.2645557E3,5.817572E2,2.0761705E2,8.202439E3,2.907222E2,2.8469517E3,7.369179E2,3.0294965E2,1.174971E1,2.2202591E2,1.785694E2,2.453791E2,1.248971E0,8.3534705E2,5.898118E1,7.9999676E0,3.1770376E1,2.8343126E1,3.9860843E2,1.418627E2,5.447234E2,3.646414E2,9.427796E2,5.0454605E1,7.6825366E2,3.7680493E2,5.2499685E0,1.0127767E3,1.2517789E3,5.34762E2,4.6995136E1,1.5369664E2,5.3920418E1,3.039519E2,7.8984873E3,7.4429355E0,2.8327927E2,2.5981433E3,2.4880832E2,2.6925644E2,4.6766147E2,2.929498E2,9.999853E0,2.1977647E2,2.2494237E0,8.999918E0,1.6956947E2,2.047279E1,2.2490631E2,7.934905E2,4.185657E1,5.748197E1,1.4992063E0,2.267192E1,9.098455E0,2.067233E1,7.670796E0,3.921188E2,6.4896274E0,7.886942E1,6.2993286E1,2.5498096E1,5.192253E2,3.6314227E2,1.4990957E0,8.584509E2,8.432865E1,2.6253096E1,2.4201511E1,4.887772E2,2.794765E2],"tree_param":{"num_deleted":"0","num_feature":"8","num_nodes":"101","size_leaf_vector":"1"}},{"base_weights":[3.188623E-4,-2.4368805E-1,9.638114E-1,-3.0893368E-1,8.077233E-1,1.5246907E0,8.011469E-1,2.2840391E-1,-4.617243E-1,6.424174E-1,1.280709E0,1.5407238E0,-1.6143588E-2,3.8764945E-1,1.0175909E0,4.795663E-1,-6.126031E-1,-3.3087108E-1,-7.716301E-1,3.3767995E-1,8.8054794E-1,-1.136977E-2,1.2975307E0,1.5722485E0,8.110658E-1,8.9949566E-1,6.884485E-2,8.450973E-1,1.2919139E0,5.0477695E-1,-2.0141669E-2,-8.0262077E-1,-7.8684956E-2,-3.757039E-1,5.520332E-1,-9.344173E-1,-1.4210497E-1,4.2700163E-1,-1.817421E-2,1.1600978E0,5.287626E-1,1.3145232E0,-1.136977E-2,1.5964614E-2,1.3815547E0,-1.7586377E-2,1.4934901E0,-1.8440102E-1,1.142573E0,-5.784801E-1,2.3823085E-1,1.308162E0,6.650064E-1,2.4151275E-1,1.3605862E0,7.7992366E-3,2.4817332E-3,-7.010705E-3,-1.9201769E-2,2.1491284E-3,-9.038098E-3,2.947399E-3,-4.1980715E-3,3.3227282E-3,1.1717716E-2,-1.1289641E-2,-6.0305176E-3,-8.114389E-3,2.4439134E-3,5.0873207E-3,-1.7950185E-2,1.1925396E-2,-1.3971127E-2,-1.7786639E-2,6.610232E-3,7.2493516E-3,1.364802E-2,1.4645794E-2,-1.5354247E-2,1.6429882E-2,9.954667E-3,2.7576524E-3,-1.8833866E-2,-1.6540756E-2,1.16921365E-2,1.5918955E-3,-1.4898997E-2,-9.324772E-3,4.354352E-3,1.3219659E-2,-1.2223375E-2,5.619263E-3,1.0836312E-2,-1.912672E-2,6.791862E-3,1.0506154E-2,1.4056377E-2],"categories":[],"categories_nodes":[],"categories_segments":[],"categories_sizes":[],"default_left":[0,0,0,0,0,0,0,0,0,0,0,0,0,0,0,0,0,0,0,0,0,0,0,0,0,0,0,0,0,0,0,0,0,0,0,0,0,0,0,0,0,0,0,0,0,0,0,0,0,0,0,0,0,0,0,0,0,0,0,0,0,0,0,0,0,0,0,0,0,0,0,0,0,0,0,0,0,0,0,0,0,0,0,0,0,0,0,0,0,0,0,0,0,0,0,0,0],"id":10,"left_children":[1,3,5,7,9,11,13,15,17,19,21,23,-1,25,27,29,31,33,35,37,39,-1,41,43,45,47,49,51,53,55,-1,57,59,61,63,65,67,69,-1,71,73,75,-1,-1,77,-1,79,81,83,85,87,89,91,93,95,-1,-1,-1,-1,-1,-1,-1,-1,-1,-1,-1,-1,-1,-1,-1,-1,-1,-1,-1,-1,-1,-1,-1,-1,-1,-1,-1,-1,-1,-1,-1,-1,-1,-1,-1,-1,-1,-1,-1,-1,-1,-1],"loss_changes":[4.8548184E3,1.1305864E3,3.7949365E2,1.2739045E3,7.447406E1,4.9645996E1,2.8930225E2,7.260033E2,4.8963696E2,5.1633972E1,1.1577545E1,2.0180908E1,0E0,1.8168411E2,9.9417725E1,1.6737512E2,8.013849E1,3.3649738E2,3.673291E2,6.1515663E1,3.883087E1,0E0,1.1718872E1,1.9177246E0,7.399381E1,1.1281497E2,7.550918E1,1.0812341E2,5.8684692E1,1.8481909E2,0E0,6.480817E1,5.0729588E1,2.3921191E2,5.5581444E1,1.829729E2,1.9108936E2,5.608305E1,0E0,2.0137817E1,5.5937195E1,6.30011E0,0E0,0E0,2.841652E1,0E0,7.9893494E-1,6.240068E1,2.7953766E1,9.6284134E1,1.2635362E2,1.4363342E1,4.008499E1,4.977892E1,9.243774E0,0E0,0E0,0E0,0E0,0E0,0E0,0E0,0E0,0E0,0E0,0E0,0E0,0E0,0E0,0E0,0E0,0E0,0E0,0E0,0E0,0E0,0E0,0E0,0E0,0E0,0E0,0E0,0E0,0E0,0E0,0E0,0E0,0E0,0E0,0E0,0E0,0E0,0E0,0E0,0E0,0E0,0E0],"parents":[2147483647,0,0,1,1,2,2,3,3,4,4,5,5,6,6,7,7,8,8,9,9,10,10,11,11,13,13,14,14,15,15,16,16,17,17,18,18,19,19,20,20,22,22,23,23,24,24,25,25,26,26,27,27,28,28,29,29,31,31,32,32,33,33,34,34,35,35,36,36,37,37,39,39,40,40,41,41,44,44,46,46,47,47,48,48,49,49,50,50,51,51,52,52,53,53,54,54],"right_children":[2,4,6,8,10,12,14,16,18,20,22,24,-1,26,28,30,32,34,36,38,40,-1,42,44,46,48,50,52,54,56,-1,58,60,62,64,66,68,70,-1,72,74,76,-1,-1,78,-1,80,82,84,86,88,90,92,94,96,-1,-1,-1,-1,-1,-1,-1,-1,-1,-1,-1,-1,-1,-1,-1,-1,-1,-1,-1,-1,-1,-1,-1,-1,-1,-1,-1,-1,-1,-1,-1,-1,-1,-1,-1,-1,-1,-1,-1,-1,-1,-1],"split_conditions":[1E6,3.349E3,2.73E2,1E0,1E0,1.92388E5,3.6E1,5.4674E4,1E3,1.44E2,1E0,1.475096E6,-1.6143588E-2,7.62E2,5.4E2,2.8E1,2.36658E5,1.63E2,1.7E1,7.50849E5,7.517E3,-1.136977E-2,8.984E5,2.9086E4,2.3E1,3E0,6.849E3,1.733E3,6.37E3,1E0,-2.0141669E-2,2.01E2,4.74418E5,2.1E1,6.91E2,1.14E5,1.9638E4,1.16E2,-1.817421E-2,1.345E3,2.4E2,8.4E1,-1.136977E-2,1.5964614E-2,8E0,-1.7586377E-2,5.9E1,1.751506E6,2.93E2,5E1,5E0,6.09804E5,2.1E1,5.705794E6,2.0994E4,7.7992366E-3,2.4817332E-3,-7.010705E-3,-1.9201769E-2,2.1491284E-3,-9.038098E-3,2.947399E-3,-4.1980715E-3,3.3227282E-3,1.1717716E-2,-1.1289641E-2,-6.0305176E-3,-8.114389E-3,2.4439134E-3,5.0873207E-3,-1.7950185E-2,1.1925396E-2,-1.3971127E-2,-1.7786639E-2,6.610232E-3,7.2493516E-3,1.364802E-2,1.4645794E-2,-1.5354247E-2,1.6429882E-2,9.954667E-3,2.7576524E-3,-1.8833866E-2,-1.6540756E-2,1.16921365E-2,1.5918955E-3,-1.4898997E-2,-9.324772E-3,4.354352E-3,1.3219659E-2,-1.2223375E-2,5.619263E-3,1.0836312E-2,-1.912672E-2,6.791862E-3,1.0506154E-2,1.4056377E-2],"split_indices":[7,2,2,6,4,0,5,0,7,5,0,7,0,2,5,3,0,4,5,7,2,0,7,0,5,5,0,2,0,1,0,7,0,2,4,7,0,5,0,6,5,5,0,0,5,0,5,7,2,6,5,0,4,7,0,0,0,0,0,0,0,0,0,0,0,0,0,0,0,0,0,0,0,0,0,0,0,0,0,0,0,0,0,0,0,0,0,0,0,0,0,0,0,0,0,0,0],"split_type":[0,0,0,0,0,0,0,0,0,0,0,0,0,0,0,0,0,0,0,0,0,0,0,0,0,0,0,0,0,0,0,0,0,0,0,0,0,0,0,0,0,0,0,0,0,0,0,0,0,0,0,0,0,0,0,0,0,0,0,0,0,0,0,0,0,0,0,0,0,0,0,0,0,0,0,0,0,0,0,0,0,0,0,0,0,0,0,0,0,0,0,0,0,0,0,0,0],"sum_hessian":[2.0648117E4,1.6476219E4,4.171897E3,1.5514188E4,9.62031E2,9.360282E2,3.235869E3,3.4346475E3,1.2079541E4,7.1462994E2,2.4740103E2,9.3177826E2,4.249964E0,1.1127836E3,2.1230854E3,2.6451245E3,7.8952295E2,8.494802E3,3.5847393E3,3.1453513E2,4.0009485E2,1.2493399E0,2.4615169E2,8.920813E2,3.9696945E1,4.2638834E2,6.863952E2,1.3059733E3,8.171121E2,2.6194407E3,2.568396E1,5.819189E2,2.0760408E2,8.084838E3,4.0996387E2,2.8478396E3,7.3689966E2,3.0278748E2,1.1747652E1,2.2165593E2,1.784389E2,2.4490234E2,1.2493399E0,7.850311E2,1.07050186E2,7.999055E0,3.1697891E1,7.8150734E1,3.4823758E2,1.4185759E2,5.445376E2,3.6393344E2,9.4203986E2,5.0419537E1,7.6669257E2,1.263064E3,1.3563767E3,5.3493744E2,4.698146E1,1.5366588E2,5.3938198E1,4.9866132E2,7.586177E3,3.037793E2,1.06184555E2,1.7928427E3,1.0549968E3,2.6934634E2,4.675533E2,2.9278912E2,9.998339E0,2.1940611E2,2.249819E0,8.998709E0,1.694402E2,2.0455225E1,2.2444713E2,1.0457172E2,2.4784703E0,2.2611338E1,9.086554E0,6.2154125E1,1.5996612E1,2.7095544E0,3.4552805E2,7.885808E1,6.2999504E1,7.796547E1,4.6657217E2,3.6243393E2,1.4994917E0,7.5778815E2,1.8425172E2,7.944993E0,4.247454E1,1.0037787E2,6.663147E2],"tree_param":{"num_deleted":"0","num_feature":"8","num_nodes":"97","size_leaf_vector":"1"}},{"base_weights":[3.1393286E-4,-2.4126156E-1,9.5562243E-1,-3.0583116E-1,8.0058444E-1,1.5133693E0,7.940898E-1,2.261981E-1,-4.5702595E-1,6.3654584E-1,1.2704263E0,1.5293176E0,-1.601436E-2,3.840049E-1,1.0089146E0,4.7503385E-1,-6.0642415E-1,-3.2750326E-1,-7.637766E-1,3.3438596E-1,8.7283933E-1,-1.1305173E-2,1.2871733E0,1.5606439E0,8.047143E-1,8.9169127E-1,6.8147995E-2,8.376101E-1,1.2815846E0,1.0841184E0,3.719974E-1,-7.9445064E-1,-7.7936284E-2,-3.71866E-1,5.4691863E-1,-9.248516E-1,-1.4069638E-1,4.2292148E-1,-1.8012382E-2,1.1504709E0,5.238069E-1,1.3040909E0,-1.1305173E-2,1.5775793E0,1.298604E0,-1.7434236E-2,1.4827899E0,-1.8280125E-1,1.1329999E0,-5.7283735E-1,2.3591056E-1,1.2976995E0,6.5889513E-1,2.3894979E-1,1.3498682E0,1.1266297E-2,-1.6534124E-2,3.9451397E-3,-1.999361E-2,-6.9386414E-3,-1.9022614E-2,2.128203E-3,-8.946842E-3,4.922924E-3,-4.055539E-3,3.2906947E-3,1.1620732E-2,-1.0181172E-2,-2.390493E-3,-8.031155E-3,2.4200897E-3,5.039427E-3,-1.779207E-2,1.1827285E-2,-1.3873667E-2,-1.763122E-2,6.5496014E-3,7.1862703E-3,1.3540823E-2,1.5899993E-2,1.3105726E-2,1.3840485E-2,-1.2110898E-2,1.631627E-2,9.87703E-3,-1.9591628E-2,2.5260511E-3,-1.6397739E-2,1.1594968E-2,1.5763988E-3,-1.4752533E-2,-1.8815067E-2,3.4333244E-3,1.3114384E-2,-1.214867E-2,7.2320956E-3,4.07905E-5,1.1686224E-2,-7.73375E-3,1.2571959E-2,1.50694745E-2],"categories":[],"categories_nodes":[],"categories_segments":[],"categories_sizes":[],"default_left":[0,0,0,0,0,0,0,0,0,0,0,0,0,0,0,0,0,0,0,0,0,0,0,0,0,0,0,0,0,0,0,0,0,0,0,0,0,0,0,0,0,0,0,0,0,0,0,0,0,0,0,0,0,0,0,0,0,0,0,0,0,0,0,0,0,0,0,0,0,0,0,0,0,0,0,0,0,0,0,0,0,0,0,0,0,0,0,0,0,0,0,0,0,0,0,0,0,0,0,0,0],"id":11,"left_children":[1,3,5,7,9,11,13,15,17,19,21,23,-1,25,27,29,31,33,35,37,39,-1,41,43,45,47,49,51,53,55,57,59,61,63,65,67,69,71,-1,73,75,77,-1,79,81,-1,83,85,87,89,91,93,95,97,99,-1,-1,-1,-1,-1,-1,-1,-1,-1,-1,-1,-1,-1,-1,-1,-1,-1,-1,-1,-1,-1,-1,-1,-1,-1,-1,-1,-1,-1,-1,-1,-1,-1,-1,-1,-1,-1,-1,-1,-1,-1,-1,-1,-1,-1,-1],"loss_changes":[4.764076E3,1.1086677E3,3.7418677E2,1.2482097E3,7.3323425E1,4.887671E1,2.8442798E2,7.118264E2,4.7980933E2,5.0753998E1,1.1423218E1,1.9863037E1,0E0,1.7841885E2,9.799634E1,1.6556927E2,7.85043E1,3.298277E2,3.5981128E2,6.0390617E1,3.8214386E1,0E0,1.1563019E1,1.9040527E0,7.276889E1,1.1086914E2,7.403434E1,1.0648956E2,5.7806396E1,4.633368E1,1.2164914E2,6.3650574E1,4.972497E1,2.3564319E2,5.4654358E1,1.8201782E2,1.872531E2,5.5068527E1,0E0,1.9837372E1,5.493506E1,6.209564E0,0E0,6.755371E-1,1.4484352E1,0E0,7.923126E-1,6.1699303E1,2.751767E1,9.4395424E1,1.24695526E2,1.4165405E1,3.968109E1,4.9278404E1,9.25708E0,0E0,0E0,0E0,0E0,0E0,0E0,0E0,0E0,0E0,0E0,0E0,0E0,0E0,0E0,0E0,0E0,0E0,0E0,0E0,0E0,0E0,0E0,0E0,0E0,0E0,0E0,0E0,0E0,0E0,0E0,0E0,0E0,0E0,0E0,0E0,0E0,0E0,0E0,0E0,0E0,0E0,0E0,0E0,0E0,0E0,0E0],"parents":[2147483647,0,0,1,1,2,2,3,3,4,4,5,5,6,6,7,7,8,8,9,9,10,10,11,11,13,13,14,14,15,15,16,16,17,17,18,18,19,19,20,20,22,22,23,23,24,24,25,25,26,26,27,27,28,28,29,29,30,30,31,31,32,32,33,33,34,34,35,35,36,36,37,37,39,39,40,40,41,41,43,43,44,44,46,46,47,47,48,48,49,49,50,50,51,51,52,52,53,53,54,54],"right_children":[2,4,6,8,10,12,14,16,18,20,22,24,-1,26,28,30,32,34,36,38,40,-1,42,44,46,48,50,52,54,56,58,60,62,64,66,68,70,72,-1,74,76,78,-1,80,82,-1,84,86,88,90,92,94,96,98,100,-1,-1,-1,-1,-1,-1,-1,-1,-1,-1,-1,-1,-1,-1,-1,-1,-1,-1,-1,-1,-1,-1,-1,-1,-1,-1,-1,-1,-1,-1,-1,-1,-1,-1,-1,-1,-1,-1,-1,-1,-1,-1,-1,-1,-1,-1],"split_conditions":[1E6,3.349E3,2.73E2,1E0,1E0,1.92388E5,3.6E1,5.4674E4,1E3,1.44E2,1E0,1.475096E6,-1.601436E-2,7.62E2,5.4E2,1.2E1,2.36658E5,1.63E2,1.7E1,7.50849E5,7.517E3,-1.1305173E-2,8.984E5,5.4674E4,2.3E1,3E0,6.849E3,1.733E3,6.37E3,2.8E1,2.8E1,2.01E2,4.74418E5,1E0,6.91E2,2.18114E5,1.9638E4,1.16E2,-1.8012382E-2,1.345E3,2.4E2,8.4E1,-1.1305173E-2,1.177E6,8E0,-1.7434236E-2,5.9E1,1.2264E4,2.93E2,5E1,2E0,6.09804E5,6.55E2,1E0,7E0,1.1266297E-2,-1.6534124E-2,3.9451397E-3,-1.999361E-2,-6.9386414E-3,-1.9022614E-2,2.128203E-3,-8.946842E-3,4.922924E-3,-4.055539E-3,3.2906947E-3,1.1620732E-2,-1.0181172E-2,-2.390493E-3,-8.031155E-3,2.4200897E-3,5.039427E-3,-1.779207E-2,1.1827285E-2,-1.3873667E-2,-1.763122E-2,6.5496014E-3,7.1862703E-3,1.3540823E-2,1.5899993E-2,1.3105726E-2,1.3840485E-2,-1.2110898E-2,1.631627E-2,9.87703E-3,-1.9591628E-2,2.5260511E-3,-1.6397739E-2,1.1594968E-2,1.5763988E-3,-1.4752533E-2,-1.8815067E-2,3.4333244E-3,1.3114384E-2,-1.214867E-2,7.2320956E-3,4.07905E-5,1.1686224E-2,-7.73375E-3,1.2571959E-2,1.50694745E-2],"split_indices":[7,2,2,6,4,0,5,0,7,5,0,7,0,2,5,2,0,4,5,7,2,0,7,0,5,5,0,2,0,3,3,7,0,0,4,0,0,5,0,6,5,5,0,7,5,0,5,0,2,6,5,0,6,0,4,0,0,0,0,0,0,0,0,0,0,0,0,0,0,0,0,0,0,0,0,0,0,0,0,0,0,0,0,0,0,0,0,0,0,0,0,0,0,0,0,0,0,0,0,0,0],"split_type":[0,0,0,0,0,0,0,0,0,0,0,0,0,0,0,0,0,0,0,0,0,0,0,0,0,0,0,0,0,0,0,0,0,0,0,0,0,0,0,0,0,0,0,0,0,0,0,0,0,0,0,0,0,0,0,0,0,0,0,0,0,0,0,0,0,0,0,0,0,0,0,0,0,0,0,0,0,0,0,0,0,0,0,0,0,0,0,0,0,0,0,0,0,0,0,0,0,0,0,0,0],"sum_hessian":[2.0641445E4,1.6475836E4,4.1656113E3,1.5514982E4,9.608525E2,9.336154E2,3.2319958E3,3.4332944E3,1.2081688E4,7.139439E2,2.4690858E2,9.2936597E2,4.249488E0,1.1120193E3,2.1199763E3,2.6436487E3,7.8964575E2,8.496279E3,3.5854087E3,3.143652E2,3.995787E2,1.249626E0,2.4565897E2,8.8974634E2,3.9619595E1,4.2579803E2,6.8622125E2,1.3044993E3,8.154772E2,3.811306E2,2.262518E3,5.8205707E2,2.0758867E2,8.086591E3,4.0968866E2,2.8485374E3,7.3687134E2,3.0262152E2,1.1743667E1,2.2127411E2,1.7830461E2,2.4440933E2,1.249626E0,8.3101794E2,5.87284E1,7.9969077E0,3.1622688E1,7.813281E1,3.4766522E2,1.4184538E2,5.4437585E2,3.6320142E2,9.4129785E2,5.0400536E1,7.650766E2,3.7588196E2,5.2486496E0,2.2420627E3,2.0455263E1,5.350979E2,4.6959213E1,1.5363507E2,5.395359E1,3.0290457E2,7.783686E3,3.036794E2,1.0600926E2,2.5071003E3,3.4143707E2,2.6942648E2,4.6744485E2,2.926263E2,9.995221E0,2.1902411E2,2.2499912E0,8.996079E0,1.6930853E2,2.0437292E1,2.2397205E2,7.893459E2,4.1672073E1,5.722853E1,1.4998733E0,2.254837E1,9.074317E0,1.4692213E1,6.3440598E1,2.7145507E0,3.4495068E2,7.884675E1,6.299864E1,2.5486692E1,5.1888916E2,3.6170166E2,1.4997731E0,8.5701904E2,8.427879E1,2.619232E1,2.4208218E1,4.8685202E2,2.782246E2],"tree_param":{"num_deleted":"0","num_feature":"8","num_nodes":"101","size_leaf_vector":"1"}},{"base_weights":[3.096922E-4,-2.3886226E-1,9.475649E-1,-3.0276316E-1,7.9354E-1,1.5022959E0,7.871349E-1,2.2401555E-1,-4.5237777E-1,6.307467E-1,1.260312E0,1.5181614E0,-1.5887821E-2,3.803985E-1,1.0003757E0,4.705499E-1,-6.00327E-1,-3.241707E-1,-7.560114E-1,3.311299E-1,8.6523235E-1,-1.12413475E-2,1.2769859E0,1.549294E0,7.984925E-1,8.839588E-1,6.7446165E-2,8.3021474E-1,1.2714765E0,1.0750145E0,3.6841962E-1,-7.863948E-1,-7.7195786E-2,-3.6002532E-1,7.368548E-1,-9.153939E-1,-1.3930358E-1,4.188856E-1,-1.7854648E-2,1.140986E0,5.1890856E-1,1.2938299E0,-1.12413475E-2,1.5733622E-2,1.359924E0,-1.7285734E-2,1.4722956E0,-9.89105E-1,1.019868E0,-5.6727713E-1,2.3360702E-1,1.2874081E0,6.528487E-1,2.3681632E-1,1.339335E0,1.117233E-2,-1.6399859E-2,6.240664E-3,1.6149506E-3,-6.8675075E-3,-1.8848414E-2,2.107481E-3,-8.856884E-3,4.765897E-3,-3.922106E-3,-1.8849537E-2,8.061034E-3,-9.933106E-3,-1.0103614E-3,-7.949051E-3,2.3964995E-3,4.992023E-3,-1.763787E-2,1.173062E-2,-1.3777815E-2,-1.747959E-2,6.48962E-3,7.1238675E-3,1.3435449E-2,1.4424511E-2,-1.5233518E-2,1.6205177E-2,9.800345E-3,-1.9730557E-2,1.591219E-2,1.0706905E-2,-1.7718557E-2,1.561055E-3,-1.4609088E-2,-9.19337E-3,4.2800484E-3,1.3010834E-2,-1.2074961E-2,5.5058203E-3,1.068515E-2,-1.8958537E-2,6.7119203E-3,1.0306064E-2,1.3842601E-2],"categories":[],"categories_nodes":[],"categories_segments":[],"categories_sizes":[],"default_left":[0,0,0,0,0,0,0,0,0,0,0,0,0,0,0,0,0,0,0,0,0,0,0,0,0,0,0,0,0,0,0,0,0,0,0,0,0,0,0,0,0,0,0,0,0,0,0,0,0,0,0,0,0,0,0,0,0,0,0,0,0,0,0,0,0,0,0,0,0,0,0,0,0,0,0,0,0,0,0,0,0,0,0,0,0,0,0,0,0,0,0,0,0,0,0,0,0,0,0],"id":12,"left_children":[1,3,5,7,9,11,13,15,17,19,21,23,-1,25,27,29,31,33,35,37,39,-1,41,43,45,47,49,51,53,55,57,59,61,63,65,67,69,71,-1,73,75,77,-1,-1,79,-1,81,83,85,87,89,91,93,95,97,-1,-1,-1,-1,-1,-1,-1,-1,-1,-1,-1,-1,-1,-1,-1,-1,-1,-1,-1,-1,-1,-1,-1,-1,-1,-1,-1,-1,-1,-1,-1,-1,-1,-1,-1,-1,-1,-1,-1,-1,-1,-1,-1,-1],"loss_changes":[4.6753027E3,1.0872021E3,3.6904565E2,1.2230244E3,7.2201355E1,4.8124268E1,2.7967627E2,6.979386E2,4.7018994E2,4.9892883E1,1.1271698E1,1.9552002E1,0E0,1.752144E2,9.663794E1,1.627746E2,7.690857E1,3.2357928E2,3.5245044E2,5.9292267E1,3.7612488E1,0E0,1.1409943E1,1.9091797E0,7.157155E1,1.0950641E2,7.258856E1,1.0489972E2,5.6888306E1,4.5562286E1,1.1959018E2,6.253598E1,4.874207E1,2.2156726E2,5.2016296E1,1.8075049E2,1.8349965E2,5.4077194E1,0E0,1.9542389E1,5.395519E1,6.1220703E0,0E0,0E0,2.7787216E1,0E0,7.864456E-1,7.763356E1,5.8347076E1,9.25564E1,1.2258482E2,1.3971252E1,3.9434998E1,4.8854015E1,9.175537E0,0E0,0E0,0E0,0E0,0E0,0E0,0E0,0E0,0E0,0E0,0E0,0E0,0E0,0E0,0E0,0E0,0E0,0E0,0E0,0E0,0E0,0E0,0E0,0E0,0E0,0E0,0E0,0E0,0E0,0E0,0E0,0E0,0E0,0E0,0E0,0E0,0E0,0E0,0E0,0E0,0E0,0E0,0E0,0E0],"parents":[2147483647,0,0,1,1,2,2,3,3,4,4,5,5,6,6,7,7,8,8,9,9,10,10,11,11,13,13,14,14,15,15,16,16,17,17,18,18,19,19,20,20,22,22,23,23,24,24,25,25,26,26,27,27,28,28,29,29,30,30,31,31,32,32,33,33,34,34,35,35,36,36,37,37,39,39,40,40,41,41,44,44,46,46,47,47,48,48,49,49,50,50,51,51,52,52,53,53,54,54],"right_children":[2,4,6,8,10,12,14,16,18,20,22,24,-1,26,28,30,32,34,36,38,40,-1,42,44,46,48,50,52,54,56,58,60,62,64,66,68,70,72,-1,74,76,78,-1,-1,80,-1,82,84,86,88,90,92,94,96,98,-1,-1,-1,-1,-1,-1,-1,-1,-1,-1,-1,-1,-1,-1,-1,-1,-1,-1,-1,-1,-1,-1,-1,-1,-1,-1,-1,-1,-1,-1,-1,-1,-1,-1,-1,-1,-1,-1,-1,-1,-1,-1,-1,-1],"split_conditions":[1E6,3.349E3,2.73E2,1E0,1E0,1.92388E5,3.6E1,5.4674E4,1E3,1.44E2,1E0,1.475096E6,-1.5887821E-2,7.62E2,5.4E2,1.2E1,2.36658E5,2.59E2,1.7E1,7.50849E5,7.517E3,-1.12413475E-2,8.984E5,2.9086E4,2.3E1,1E0,6.849E3,1.733E3,6.37E3,2.8E1,1E0,2.01E2,4.74418E5,1E0,1E0,5.99125E5,1.9638E4,1.16E2,-1.7854648E-2,1.345E3,2.4E2,8.4E1,-1.12413475E-2,1.5733622E-2,8E0,-1.7285734E-2,5.9E1,7.4E2,3.85815E5,5E1,5E0,6.09804E5,2.1E1,1.5919E4,2.0994E4,1.117233E-2,-1.6399859E-2,6.240664E-3,1.6149506E-3,-6.8675075E-3,-1.8848414E-2,2.107481E-3,-8.856884E-3,4.765897E-3,-3.922106E-3,-1.8849537E-2,8.061034E-3,-9.933106E-3,-1.0103614E-3,-7.949051E-3,2.3964995E-3,4.992023E-3,-1.763787E-2,1.173062E-2,-1.3777815E-2,-1.747959E-2,6.48962E-3,7.1238675E-3,1.3435449E-2,1.4424511E-2,-1.5233518E-2,1.6205177E-2,9.800345E-3,-1.9730557E-2,1.591219E-2,1.0706905E-2,-1.7718557E-2,1.561055E-3,-1.4609088E-2,-9.19337E-3,4.2800484E-3,1.3010834E-2,-1.2074961E-2,5.5058203E-3,1.068515E-2,-1.8958537E-2,6.7119203E-3,1.0306064E-2,1.3842601E-2],"split_indices":[7,2,2,6,4,0,5,0,7,5,0,7,0,2,5,2,0,4,5,7,2,0,7,0,5,5,0,2,0,3,1,7,0,0,5,7,0,5,0,6,5,5,0,0,5,0,5,2,0,6,5,0,4,2,0,0,0,0,0,0,0,0,0,0,0,0,0,0,0,0,0,0,0,0,0,0,0,0,0,0,0,0,0,0,0,0,0,0,0,0,0,0,0,0,0,0,0,0,0],"split_type":[0,0,0,0,0,0,0,0,0,0,0,0,0,0,0,0,0,0,0,0,0,0,0,0,0,0,0,0,0,0,0,0,0,0,0,0,0,0,0,0,0,0,0,0,0,0,0,0,0,0,0,0,0,0,0,0,0,0,0,0,0,0,0,0,0,0,0,0,0,0,0,0,0,0,0,0,0,0,0,0,0,0,0,0,0,0,0,0,0,0,0,0,0,0,0,0,0,0,0],"sum_hessian":[2.063433E4,1.6475252E4,4.159079E3,1.5515613E4,9.596376E2,9.31118E2,3.2279612E3,3.431861E3,1.2083753E4,7.132373E2,2.464003E2,9.2686957E2,4.248469E0,1.1112129E3,2.1167483E3,2.642118E3,7.8974335E2,8.497721E3,3.5860315E3,3.141898E2,3.990475E2,1.2498305E0,2.4515047E2,8.873311E2,3.9538418E1,4.252055E2,6.860074E2,1.3029761E3,8.137723E2,3.8051132E2,2.2616064E3,5.821725E2,2.0757088E2,8.220588E3,2.7713293E2,2.8491982E3,7.368332E2,3.0245197E2,1.1737803E1,2.2088084E2,1.7816666E2,2.4390063E2,1.2498305E0,7.807875E2,1.0654367E2,7.9935603E0,3.1544857E1,2.8340914E1,3.968646E2,1.4182632E2,5.44181E2,3.6244617E2,9.405299E2,5.036286E1,7.634094E2,3.7526443E2,5.246899E0,1.0107949E3,1.2508115E3,5.352438E2,4.692867E1,1.5360422E2,5.3966663E1,3.0402576E2,7.9165625E3,6.456702E0,2.7067624E2,2.6001953E3,2.4900302E2,2.694971E2,4.6733612E2,2.9246143E2,9.990543E0,2.1863089E2,2.249945E0,8.992071E0,1.6917458E2,2.041901E1,2.2348163E2,1.0406477E2,2.4788973E0,2.24831E1,9.061757E0,2.0687521E1,7.653393E0,3.9037442E2,6.490169E0,7.8835434E1,6.2990887E1,7.7977745E1,4.662033E2,3.6094623E2,1.4999418E0,7.566864E2,1.8384354E2,7.952693E0,4.2410168E1,1.0001834E2,6.6339105E2],"tree_param":{"num_deleted":"0","num_feature":"8","num_nodes":"99","size_leaf_vector":"1"}},{"base_weights":[3.0523166E-4,-2.3649183E-1,9.3961185E-1,-2.9973194E-1,7.8658766E-1,1.4914379E0,7.802622E-1,2.2186498E-1,-4.4778806E-1,6.250183E-1,1.2503611E0,1.5072224E0,-1.5763888E-2,3.7684855E-1,9.919342E-1,4.6612382E-1,-5.943095E-1,-3.2087737E-1,-7.48364E-1,3.2791084E-1,8.577245E-1,-1.117828E-2,1.2669634E0,1.5381651E0,7.92396E-1,8.7637454E-1,6.6765375E-2,8.2290787E-1,1.261484E0,4.908703E-1,-1.9746415E-2,-7.7845025E-1,-7.646315E-2,-3.6439934E-1,5.3836447E-1,-9.060889E-1,-1.3792644E-1,4.148929E-1,-1.7700845E-2,1.1316394E0,5.1406634E-1,1.2837354E0,-1.117828E-2,1.5621403E-2,1.3496151E0,-1.7140744E-2,1.4620007E0,-1.8316582E-1,1.1149671E0,-1.7102325E-1,5.083728E-1,1.2772834E0,6.468688E-1,2.343101E-1,1.3289757E0,7.6134834E-3,2.390119E-3,-6.79728E-3,-1.8678984E-2,2.0869616E-3,-8.768192E-3,2.9760431E-3,-4.0792935E-3,3.2367657E-3,1.1459743E-2,-1.0980499E-2,-5.7931575E-3,-7.868063E-3,2.3731415E-3,4.9450994E-3,-1.748744E-2,1.1635358E-2,-1.3683532E-2,-1.7331611E-2,6.4302753E-3,7.062124E-3,1.3331848E-2,1.4317723E-2,-1.5115823E-2,1.6096523E-2,9.724585E-3,2.6936329E-3,-1.8530658E-2,-1.6330393E-2,1.1413506E-2,-1.9826187E-2,-5.606035E-4,7.330274E-3,-1.0960407E-2,1.3134588E-2,1.9588051E-3,7.1069407E-3,-2.1535625E-5,-1.8843336E-2,6.662772E-3,1.2365545E-2,1.485765E-2],"categories":[],"categories_nodes":[],"categories_segments":[],"categories_sizes":[],"default_left":[0,0,0,0,0,0,0,0,0,0,0,0,0,0,0,0,0,0,0,0,0,0,0,0,0,0,0,0,0,0,0,0,0,0,0,0,0,0,0,0,0,0,0,0,0,0,0,0,0,0,0,0,0,0,0,0,0,0,0,0,0,0,0,0,0,0,0,0,0,0,0,0,0,0,0,0,0,0,0,0,0,0,0,0,0,0,0,0,0,0,0,0,0,0,0,0,0],"id":13,"left_children":[1,3,5,7,9,11,13,15,17,19,21,23,-1,25,27,29,31,33,35,37,39,-1,41,43,45,47,49,51,53,55,-1,57,59,61,63,65,67,69,-1,71,73,75,-1,-1,77,-1,79,81,83,85,87,89,91,93,95,-1,-1,-1,-1,-1,-1,-1,-1,-1,-1,-1,-1,-1,-1,-1,-1,-1,-1,-1,-1,-1,-1,-1,-1,-1,-1,-1,-1,-1,-1,-1,-1,-1,-1,-1,-1,-1,-1,-1,-1,-1,-1],"loss_changes":[4.5883447E3,1.0661841E3,3.6405786E2,1.198405E3,7.110687E1,4.7387695E1,2.7500134E2,6.843471E2,4.6081787E2,4.9049988E1,1.1122772E1,1.9247314E1,0E0,1.720909E2,9.529907E1,1.6052008E2,7.535007E1,3.1806537E2,3.4528088E2,5.8219753E1,3.7024597E1,0E0,1.1259552E1,1.8959961E0,7.040094E1,1.077919E2,7.220839E1,1.03352234E2,5.6052612E1,1.7801471E2,0E0,6.146216E1,4.778033E1,2.3327759E2,5.3137077E1,1.7818042E2,1.7982721E2,5.3108326E1,0E0,1.9252869E1,5.29969E1,6.037445E0,0E0,0E0,2.7382889E1,0E0,7.812729E-1,6.025844E1,2.7058777E1,9.302035E1,8.753781E1,1.3930359E1,3.897165E1,4.824256E1,9.214722E0,0E0,0E0,0E0,0E0,0E0,0E0,0E0,0E0,0E0,0E0,0E0,0E0,0E0,0E0,0E0,0E0,0E0,0E0,0E0,0E0,0E0,0E0,0E0,0E0,0E0,0E0,0E0,0E0,0E0,0E0,0E0,0E0,0E0,0E0,0E0,0E0,0E0,0E0,0E0,0E0,0E0,0E0],"parents":[2147483647,0,0,1,1,2,2,3,3,4,4,5,5,6,6,7,7,8,8,9,9,10,10,11,11,13,13,14,14,15,15,16,16,17,17,18,18,19,19,20,20,22,22,23,23,24,24,25,25,26,26,27,27,28,28,29,29,31,31,32,32,33,33,34,34,35,35,36,36,37,37,39,39,40,40,41,41,44,44,46,46,47,47,48,48,49,49,50,50,51,51,52,52,53,53,54,54],"right_children":[2,4,6,8,10,12,14,16,18,20,22,24,-1,26,28,30,32,34,36,38,40,-1,42,44,46,48,50,52,54,56,-1,58,60,62,64,66,68,70,-1,72,74,76,-1,-1,78,-1,80,82,84,86,88,90,92,94,96,-1,-1,-1,-1,-1,-1,-1,-1,-1,-1,-1,-1,-1,-1,-1,-1,-1,-1,-1,-1,-1,-1,-1,-1,-1,-1,-1,-1,-1,-1,-1,-1,-1,-1,-1,-1,-1,-1,-1,-1,-1,-1],"split_conditions":[1E6,3.349E3,2.73E2,1E0,1E0,1.92388E5,3.6E1,5.4674E4,1E3,1.44E2,1E0,1.475096E6,-1.5763888E-2,7.62E2,5.4E2,2.8E1,2.36658E5,1.63E2,1.7E1,7.50849E5,7.517E3,-1.117828E-2,8.984E5,2.9086E4,2.3E1,3E0,3.545999E6,1.733E3,6.37E3,1E0,-1.9746415E-2,2.01E2,4.74418E5,2.1E1,6.91E2,1.14E5,1.9638E4,1.16E2,-1.7700845E-2,1.345E3,2.4E2,8.4E1,-1.117828E-2,1.5621403E-2,8E0,-1.7140744E-2,5.9E1,1.751506E6,2.93E2,1.15E2,2.48136E5,2.57E2,6.55E2,5.705794E6,7E0,7.6134834E-3,2.390119E-3,-6.79728E-3,-1.8678984E-2,2.0869616E-3,-8.768192E-3,2.9760431E-3,-4.0792935E-3,3.2367657E-3,1.1459743E-2,-1.0980499E-2,-5.7931575E-3,-7.868063E-3,2.3731415E-3,4.9450994E-3,-1.748744E-2,1.1635358E-2,-1.3683532E-2,-1.7331611E-2,6.4302753E-3,7.062124E-3,1.3331848E-2,1.4317723E-2,-1.5115823E-2,1.6096523E-2,9.724585E-3,2.6936329E-3,-1.8530658E-2,-1.6330393E-2,1.1413506E-2,-1.9826187E-2,-5.606035E-4,7.330274E-3,-1.0960407E-2,1.3134588E-2,1.9588051E-3,7.1069407E-3,-2.1535625E-5,-1.8843336E-2,6.662772E-3,1.2365545E-2,1.485765E-2],"split_indices":[7,2,2,6,4,0,5,0,7,5,0,7,0,2,5,3,0,4,5,7,2,0,7,0,5,5,7,2,0,1,0,7,0,2,4,7,0,5,0,6,5,5,0,0,5,0,5,7,2,0,0,6,6,7,4,0,0,0,0,0,0,0,0,0,0,0,0,0,0,0,0,0,0,0,0,0,0,0,0,0,0,0,0,0,0,0,0,0,0,0,0,0,0,0,0,0,0],"split_type":[0,0,0,0,0,0,0,0,0,0,0,0,0,0,0,0,0,0,0,0,0,0,0,0,0,0,0,0,0,0,0,0,0,0,0,0,0,0,0,0,0,0,0,0,0,0,0,0,0,0,0,0,0,0,0,0,0,0,0,0,0,0,0,0,0,0,0,0,0,0,0,0,0,0,0,0,0,0,0,0,0,0,0,0,0,0,0,0,0,0,0,0,0,0,0,0,0],"sum_hessian":[2.0626725E4,1.6474332E4,4.152393E3,1.5515943E4,9.583875E2,9.285335E2,3.2238594E3,3.4303684E3,1.2085575E4,7.1251074E2,2.4587674E2,9.242866E2,4.24692E0,1.1103972E3,2.1134622E3,2.640552E3,7.8981647E2,8.499107E3,3.5864683E3,3.1400906E2,3.985017E2,1.2499546E0,2.4462679E2,8.8483307E2,3.9453533E1,4.2458658E2,6.858106E2,1.3014294E3,8.120328E2,2.6148394E3,2.5712513E1,5.822656E2,2.0755081E2,8.0899155E3,4.0919125E2,2.8496826E3,7.367856E2,3.0227893E2,1.1730121E1,2.2047655E2,1.7802516E2,2.4337683E2,1.2499546E0,7.785508E2,1.06282295E2,7.9890437E0,3.1464489E1,7.808032E1,3.4650626E2,4.4617517E2,2.3963545E2,3.6166855E2,9.397609E2,5.034164E1,7.6169116E2,1.2598387E3,1.3550006E3,5.3537555E2,4.6890064E1,1.5357333E2,5.3977486E1,4.987716E2,7.591144E3,3.0349097E2,1.05700294E2,1.793652E3,1.0560308E3,2.695584E2,4.6722714E2,2.922946E2,9.984351E0,2.1822685E2,2.2496846E0,8.986721E0,1.6903845E2,2.0400393E1,2.2297644E2,1.038013E2,2.480992E0,2.2415606E1,9.048883E0,6.209247E1,1.5987851E1,2.7160566E0,3.437902E2,2.5655037E1,4.205201E2,2.1067873E2,2.895673E1,3.497539E2,1.1914647E1,8.5553235E2,8.422854E1,7.956355E0,4.238529E1,4.848045E2,2.7688663E2],"tree_param":{"num_deleted":"0","num_feature":"8","num_nodes":"97","size_leaf_vector":"1"}},{"base_weights":[3.007484E-4,-2.3415011E-1,9.317452E-1,-2.9673746E-1,7.7972496E-1,1.4808009E0,7.734489E-1,2.19732E-1,-4.432559E-1,6.193591E-1,1.2405684E0,1.4965061E0,-1.5642479E-2,3.7328896E-1,9.836111E-1,4.6173248E-1,-5.8837026E-1,-3.1762022E-1,-7.408345E-1,3.2472807E-1,8.5031325E-1,-1.1115955E-2,1.2571005E0,1.5272629E0,7.864207E-1,8.688847E-1,6.6072226E-2,8.1569463E-1,1.2516557E0,1.061338E0,3.6059454E-1,-7.706148E-1,-7.573827E-2,-3.6068696E-1,5.333975E-1,-8.969369E-1,-1.3656467E-1,4.1094267E-1,-1.755084E-2,1.1224272E0,5.0927913E-1,1.2738019E0,-1.1115955E-2,1.5440633E0,1.2678447E0,-1.6999146E-2,1.4518992E0,-9.764286E-1,1.003144E0,-1.6934662E-1,5.0352234E-1,1.2673318E0,6.4095145E-1,2.3183545E-1,1.3187903E0,1.1029537E-2,-1.6112719E-2,3.8272403E-3,-1.9637397E-2,-6.727945E-3,-1.8514127E-2,2.0666423E-3,-8.680734E-3,2.947105E-3,-4.0376214E-3,3.2055776E-3,1.1366465E-2,-9.89189E-3,-2.1854062E-3,-7.788157E-3,2.3500118E-3,4.8986482E-3,-1.7340647E-2,1.15414625E-2,-1.3590776E-2,-1.7187156E-2,6.371557E-3,7.0010303E-3,1.3229958E-2,1.5565307E-2,1.2769977E-2,1.3520024E-2,-1.1856566E-2,1.599023E-2,9.649732E-3,-1.9484673E-2,1.5777957E-2,1.0535275E-2,-1.755069E-2,-1.9627446E-2,-5.549844E-4,7.2623305E-3,-1.0844253E-2,1.280972E-2,-1.2058911E-2,5.3947926E-3,1.05375955E-2,1.1520151E-2,-7.6679722E-3,1.2268226E-2,1.4748979E-2],"categories":[],"categories_nodes":[],"categories_segments":[],"categories_sizes":[],"default_left":[0,0,0,0,0,0,0,0,0,0,0,0,0,0,0,0,0,0,0,0,0,0,0,0,0,0,0,0,0,0,0,0,0,0,0,0,0,0,0,0,0,0,0,0,0,0,0,0,0,0,0,0,0,0,0,0,0,0,0,0,0,0,0,0,0,0,0,0,0,0,0,0,0,0,0,0,0,0,0,0,0,0,0,0,0,0,0,0,0,0,0,0,0,0,0,0,0,0,0,0,0],"id":14,"left_children":[1,3,5,7,9,11,13,15,17,19,21,23,-1,25,27,29,31,33,35,37,39,-1,41,43,45,47,49,51,53,55,57,59,61,63,65,67,69,71,-1,73,75,77,-1,79,81,-1,83,85,87,89,91,93,95,97,99,-1,-1,-1,-1,-1,-1,-1,-1,-1,-1,-1,-1,-1,-1,-1,-1,-1,-1,-1,-1,-1,-1,-1,-1,-1,-1,-1,-1,-1,-1,-1,-1,-1,-1,-1,-1,-1,-1,-1,-1,-1,-1,-1,-1,-1,-1],"loss_changes":[4.5030947E3,1.0456033E3,3.592522E2,1.1742983E3,7.003894E1,4.6666748E1,2.7049353E2,6.7101965E2,4.5169458E2,4.8224854E1,1.0976501E1,1.8948975E1,0E0,1.6904758E2,9.3997314E1,1.5971436E2,7.382773E1,3.1177136E2,3.3829956E2,5.7172253E1,3.6450226E1,0E0,1.1111847E1,1.8920898E0,6.925624E1,1.062594E2,7.080689E1,1.0185101E2,5.523645E1,4.409897E1,1.1702258E2,6.0427124E1,4.6839207E1,2.2857959E2,5.226499E1,1.7820898E2,1.7623355E2,5.2161278E1,0E0,1.8968506E1,5.2059578E1,5.9555054E0,0E0,7.5891113E-1,1.3849892E1,0E0,7.7674866E-1,7.588849E1,5.6966003E1,9.119945E1,8.584751E1,1.3752686E1,3.880539E1,4.8041462E1,9.11499E0,0E0,0E0,0E0,0E0,0E0,0E0,0E0,0E0,0E0,0E0,0E0,0E0,0E0,0E0,0E0,0E0,0E0,0E0,0E0,0E0,0E0,0E0,0E0,0E0,0E0,0E0,0E0,0E0,0E0,0E0,0E0,0E0,0E0,0E0,0E0,0E0,0E0,0E0,0E0,0E0,0E0,0E0,0E0,0E0,0E0,0E0],"parents":[2147483647,0,0,1,1,2,2,3,3,4,4,5,5,6,6,7,7,8,8,9,9,10,10,11,11,13,13,14,14,15,15,16,16,17,17,18,18,19,19,20,20,22,22,23,23,24,24,25,25,26,26,27,27,28,28,29,29,30,30,31,31,32,32,33,33,34,34,35,35,36,36,37,37,39,39,40,40,41,41,43,43,44,44,46,46,47,47,48,48,49,49,50,50,51,51,52,52,53,53,54,54],"right_children":[2,4,6,8,10,12,14,16,18,20,22,24,-1,26,28,30,32,34,36,38,40,-1,42,44,46,48,50,52,54,56,58,60,62,64,66,68,70,72,-1,74,76,78,-1,80,82,-1,84,86,88,90,92,94,96,98,100,-1,-1,-1,-1,-1,-1,-1,-1,-1,-1,-1,-1,-1,-1,-1,-1,-1,-1,-1,-1,-1,-1,-1,-1,-1,-1,-1,-1,-1,-1,-1,-1,-1,-1,-1,-1,-1,-1,-1,-1,-1,-1,-1,-1,-1,-1],"split_conditions":[1E6,3.349E3,2.73E2,1E0,1E0,1.92388E5,3.6E1,5.4674E4,1E3,1.44E2,1E0,1.475096E6,-1.5642479E-2,7.62E2,5.4E2,1.2E1,2.36658E5,1.63E2,1.7E1,7.50849E5,7.517E3,-1.1115955E-2,8.984E5,5.4674E4,2.3E1,1E0,3.545999E6,1.733E3,6.37E3,2.8E1,2.8E1,2.01E2,4.74418E5,2.1E1,6.91E2,2.18114E5,1.9638E4,1.16E2,-1.755084E-2,1.345E3,2.4E2,8.4E1,-1.1115955E-2,1.177E6,8E0,-1.6999146E-2,5.9E1,7.4E2,3.85815E5,1.15E2,2.48136E5,6.09804E5,2.1E1,1E0,7E0,1.1029537E-2,-1.6112719E-2,3.8272403E-3,-1.9637397E-2,-6.727945E-3,-1.8514127E-2,2.0666423E-3,-8.680734E-3,2.947105E-3,-4.0376214E-3,3.2055776E-3,1.1366465E-2,-9.89189E-3,-2.1854062E-3,-7.788157E-3,2.3500118E-3,4.8986482E-3,-1.7340647E-2,1.15414625E-2,-1.3590776E-2,-1.7187156E-2,6.371557E-3,7.0010303E-3,1.3229958E-2,1.5565307E-2,1.2769977E-2,1.3520024E-2,-1.1856566E-2,1.599023E-2,9.649732E-3,-1.9484673E-2,1.5777957E-2,1.0535275E-2,-1.755069E-2,-1.9627446E-2,-5.549844E-4,7.2623305E-3,-1.0844253E-2,1.280972E-2,-1.2058911E-2,5.3947926E-3,1.05375955E-2,1.1520151E-2,-7.6679722E-3,1.2268226E-2,1.4748979E-2],"split_indices":[7,2,2,6,4,0,5,0,7,5,0,7,0,2,5,2,0,4,5,7,2,0,7,0,5,5,7,2,0,3,3,7,0,2,4,0,0,5,0,6,5,5,0,7,5,0,5,2,0,0,0,0,4,0,4,0,0,0,0,0,0,0,0,0,0,0,0,0,0,0,0,0,0,0,0,0,0,0,0,0,0,0,0,0,0,0,0,0,0,0,0,0,0,0,0,0,0,0,0,0,0],"split_type":[0,0,0,0,0,0,0,0,0,0,0,0,0,0,0,0,0,0,0,0,0,0,0,0,0,0,0,0,0,0,0,0,0,0,0,0,0,0,0,0,0,0,0,0,0,0,0,0,0,0,0,0,0,0,0,0,0,0,0,0,0,0,0,0,0,0,0,0,0,0,0,0,0,0,0,0,0,0,0,0,0,0,0,0,0,0,0,0,0,0,0,0,0,0,0,0,0,0,0,0,0],"sum_hessian":[2.0618648E4,1.6473025E4,4.1456235E3,1.5515922E4,9.571036E2,9.258675E2,3.2197559E3,3.4288635E3,1.2087059E4,7.117651E2,2.4533849E2,9.216227E2,4.244855E0,1.1096674E3,2.1100886E3,2.6389978E3,7.898658E2,8.50034E3,3.5867188E3,3.138232E2,3.979419E2,1.2499998E0,2.4408849E2,8.822576E2,3.9365063E1,4.2394296E2,6.8572437E2,1.2998442E3,8.102443E2,3.7951492E2,2.259483E3,5.823373E2,2.0752853E2,8.091439E3,4.0890063E2,2.84999E3,7.367287E2,3.0210254E2,1.1720667E1,2.2006163E2,1.7788026E2,2.4283849E2,1.2499998E0,8.239451E2,5.8312447E1,7.983392E0,3.1381672E1,2.8327398E1,3.9561557E2,4.4620624E2,2.3951816E2,3.608771E2,9.3896716E2,5.0318966E1,7.5992535E2,3.7427435E2,5.240582E0,2.2390012E3,2.048173E1,5.354936E2,4.6843647E1,1.5354242E2,5.398611E1,4.9864313E2,7.592796E3,3.0338943E2,1.05511185E2,2.5084224E3,3.4156763E2,2.696108E2,4.6711792E2,2.9212585E2,9.976685E0,2.1781242E2,2.249215E0,8.980067E0,1.689002E2,2.0381453E1,2.2245703E2,7.825838E2,4.1361332E1,5.6812664E1,1.4997824E0,2.2345963E1,9.035708E0,2.069054E1,7.6368585E0,3.8912555E2,6.489999E0,2.5665731E1,4.205405E2,2.1053337E2,2.8984785E1,3.5937717E2,1.4999537E0,7.555521E2,1.8341504E2,2.6108225E1,2.4210741E1,4.8377682E2,2.7614853E2],"tree_param":{"num_deleted":"0","num_feature":"8","num_nodes":"101","size_leaf_vector":"1"}},{"base_weights":[2.9780949E-4,-2.3183516E-1,9.2399824E-1,-2.93777E-1,7.7295E-1,1.4703873E0,7.667306E-1,2.1762101E-1,-4.3877354E-1,6.137677E-1,1.2309297E0,1.4860151E0,-1.5523519E-2,8.930389E-2,8.8914704E-1,4.5738733E-1,-5.825076E-1,-3.143994E-1,-7.3338604E-1,3.215813E-1,8.429964E-1,-1.105436E-2,1.2473929E0,1.5165901E0,7.8056276E-1,5.7709765E-1,-2.0092878E-1,7.395918E-1,1.2420297E0,1.0525546E0,3.571312E-1,-7.6288587E-1,-7.5021215E-2,-3.4919855E-1,7.188182E-1,-8.87883E-1,-1.3521805E-1,4.0703467E-1,-1.740449E-2,1.113346E0,5.0454575E-1,1.2640251E0,-1.105436E-2,1.5404523E-2,1.32913E0,-1.686082E-2,1.4419848E0,-1.9444218E-2,8.0291766E-1,3.9386508E-1,-7.8887504E-1,1.3439676E0,5.971761E-1,2.2978005E-1,1.3087713E0,1.0938843E-2,-1.5987488E-2,6.0841767E-3,1.5400135E-3,-6.6594854E-3,-1.8353669E-2,2.0465201E-3,-8.594485E-3,4.771649E-3,-3.8097112E-3,-1.8732961E-2,7.875695E-3,-9.646717E-3,-8.5586973E-4,-7.7093136E-3,2.327108E-3,4.8526675E-3,-1.7197361E-2,1.1448898E-2,-1.3499513E-2,-1.7046101E-2,6.313452E-3,6.9405744E-3,1.31297335E-2,1.4108411E-2,-1.5000746E-2,1.5886221E-2,9.575765E-3,1.3286382E-2,4.521588E-3,-5.205469E-3,6.884118E-3,-2.1451771E-2,-3.3039907E-3,-2.0099696E-2,1.4089836E-2,1.635362E-3,7.375624E-3,-1.867595E-2,6.584247E-3,1.0003815E-2,1.3537291E-2],"categories":[],"categories_nodes":[],"categories_segments":[],"categories_sizes":[],"default_left":[0,0,0,0,0,0,0,0,0,0,0,0,0,0,0,0,0,0,0,0,0,0,0,0,0,0,0,0,0,0,0,0,0,0,0,0,0,0,0,0,0,0,0,0,0,0,0,0,0,0,0,0,0,0,0,0,0,0,0,0,0,0,0,0,0,0,0,0,0,0,0,0,0,0,0,0,0,0,0,0,0,0,0,0,0,0,0,0,0,0,0,0,0,0,0,0,0],"id":15,"left_children":[1,3,5,7,9,11,13,15,17,19,21,23,-1,25,27,29,31,33,35,37,39,-1,41,43,45,47,49,51,53,55,57,59,61,63,65,67,69,71,-1,73,75,77,-1,-1,79,-1,81,-1,83,85,87,89,91,93,95,-1,-1,-1,-1,-1,-1,-1,-1,-1,-1,-1,-1,-1,-1,-1,-1,-1,-1,-1,-1,-1,-1,-1,-1,-1,-1,-1,-1,-1,-1,-1,-1,-1,-1,-1,-1,-1,-1,-1,-1,-1,-1],"loss_changes":[4.4196855E3,1.0254465E3,3.545913E2,1.1506741E3,6.899646E1,4.596118E1,2.666621E2,6.579619E2,4.427522E2,4.7416992E1,1.0832764E1,1.865747E1,0E0,6.996902E1,1.4284839E2,1.5705481E2,7.234061E1,3.059588E2,3.3145935E2,5.614898E1,3.5888977E1,0E0,1.0966675E1,1.8916016E0,6.8136635E1,1.06512665E2,1.0875058E2,1.6409021E2,5.4381104E1,4.337213E1,1.1524185E2,5.9428772E1,4.5918217E1,2.1616443E2,5.0904587E1,1.7557715E2,1.7271677E2,5.1235382E1,0E0,1.8689362E1,5.1142616E1,5.8761597E0,0E0,0E0,2.678926E1,0E0,7.728729E-1,0E0,3.0724213E1,4.2055313E1,9.646779E1,8.232324E1,9.4372986E1,4.7330364E1,9.170532E0,0E0,0E0,0E0,0E0,0E0,0E0,0E0,0E0,0E0,0E0,0E0,0E0,0E0,0E0,0E0,0E0,0E0,0E0,0E0,0E0,0E0,0E0,0E0,0E0,0E0,0E0,0E0,0E0,0E0,0E0,0E0,0E0,0E0,0E0,0E0,0E0,0E0,0E0,0E0,0E0,0E0,0E0],"parents":[2147483647,0,0,1,1,2,2,3,3,4,4,5,5,6,6,7,7,8,8,9,9,10,10,11,11,13,13,14,14,15,15,16,16,17,17,18,18,19,19,20,20,22,22,23,23,24,24,25,25,26,26,27,27,28,28,29,29,30,30,31,31,32,32,33,33,34,34,35,35,36,36,37,37,39,39,40,40,41,41,44,44,46,46,48,48,49,49,50,50,51,51,52,52,53,53,54,54],"right_children":[2,4,6,8,10,12,14,16,18,20,22,24,-1,26,28,30,32,34,36,38,40,-1,42,44,46,48,50,52,54,56,58,60,62,64,66,68,70,72,-1,74,76,78,-1,-1,80,-1,82,-1,84,86,88,90,92,94,96,-1,-1,-1,-1,-1,-1,-1,-1,-1,-1,-1,-1,-1,-1,-1,-1,-1,-1,-1,-1,-1,-1,-1,-1,-1,-1,-1,-1,-1,-1,-1,-1,-1,-1,-1,-1,-1,-1,-1,-1,-1,-1],"split_conditions":[1E6,3.349E3,2.73E2,1E0,1E0,1.92388E5,1E1,5.4674E4,1E3,1.44E2,1E0,1.475096E6,-1.5523519E-2,1.268362E6,5.4E2,1.2E1,2.36658E5,2.59E2,1.7E1,7.50849E5,7.517E3,-1.105436E-2,8.984E5,2.9086E4,2.3E1,2E0,1.3041E4,8.87E2,6.37E3,2.8E1,1E0,2.01E2,4.74418E5,1E0,1E0,5.99125E5,1.9638E4,1.16E2,-1.740449E-2,1.345E3,2.4E2,8.4E1,-1.105436E-2,1.5404523E-2,8E0,-1.686082E-2,5.9E1,-1.9444218E-2,4.45E2,4.5E1,1.05E5,1.267E3,3.6E1,1.5919E4,2.0994E4,1.0938843E-2,-1.5987488E-2,6.0841767E-3,1.5400135E-3,-6.6594854E-3,-1.8353669E-2,2.0465201E-3,-8.594485E-3,4.771649E-3,-3.8097112E-3,-1.8732961E-2,7.875695E-3,-9.646717E-3,-8.5586973E-4,-7.7093136E-3,2.327108E-3,4.8526675E-3,-1.7197361E-2,1.1448898E-2,-1.3499513E-2,-1.7046101E-2,6.313452E-3,6.9405744E-3,1.31297335E-2,1.4108411E-2,-1.5000746E-2,1.5886221E-2,9.575765E-3,1.3286382E-2,4.521588E-3,-5.205469E-3,6.884118E-3,-2.1451771E-2,-3.3039907E-3,-2.0099696E-2,1.4089836E-2,1.635362E-3,7.375624E-3,-1.867595E-2,6.584247E-3,1.0003815E-2,1.3537291E-2],"split_indices":[7,2,2,6,4,0,5,0,7,5,0,7,0,7,5,2,0,4,5,7,2,0,7,0,5,5,0,2,0,3,1,7,0,0,5,7,0,5,0,6,5,5,0,0,5,0,5,0,2,0,0,0,5,2,0,0,0,0,0,0,0,0,0,0,0,0,0,0,0,0,0,0,0,0,0,0,0,0,0,0,0,0,0,0,0,0,0,0,0,0,0,0,0,0,0,0,0],"split_type":[0,0,0,0,0,0,0,0,0,0,0,0,0,0,0,0,0,0,0,0,0,0,0,0,0,0,0,0,0,0,0,0,0,0,0,0,0,0,0,0,0,0,0,0,0,0,0,0,0,0,0,0,0,0,0,0,0,0,0,0,0,0,0,0,0,0,0,0,0,0,0,0,0,0,0,0,0,0,0,0,0,0,0,0,0,0,0,0,0,0,0,0,0,0,0,0,0],"sum_hessian":[2.0610158E4,1.6471496E4,4.1386636E3,1.5515708E4,9.5578705E2,9.2312714E2,3.2155364E3,3.4272852E3,1.2088423E4,7.1100104E2,2.4478601E2,9.188848E2,4.242286E0,4.9240424E2,2.723132E3,2.637393E3,7.898921E2,8.501487E3,3.586936E3,3.136324E2,3.9736862E2,1.2499672E0,2.4353604E2,8.796117E2,3.9273125E1,1.833163E2,3.0908795E2,1.9147411E3,8.0839105E2,3.788519E2,2.2585413E3,5.82388E2,2.0750409E2,8.225124E3,2.7636328E2,2.850273E3,7.3666296E2,3.019229E2,1.1709495E1,2.1963654E2,1.777321E2,2.4228607E2,1.2499672E0,7.738845E2,1.0572722E2,7.9766364E0,3.1296488E1,1.4442295E1,1.6887401E2,1.5381332E2,1.5527463E2,3.6353873E2,1.5512024E3,5.027833E1,7.581127E2,3.7361523E2,5.236667E0,1.00870465E3,1.2498365E3,5.355983E2,4.6789654E1,1.5351149E2,5.399261E1,3.0401703E2,7.921107E3,6.4624753E0,2.699008E2,2.6011145E3,2.4915836E2,2.6965442E2,4.670085E2,2.9195532E2,9.967587E0,2.17388E2,2.2485402E0,8.972145E0,1.6875995E2,2.0362198E1,2.2192387E2,1.0324665E2,2.4805644E0,2.2274246E1,9.022242E0,6.646611E1,1.024079E2,3.7287636E1,1.1652568E2,3.8298336E1,1.1697629E2,6.3443007E0,3.5719443E2,3.7989825E2,1.1713041E3,7.9621663E0,4.2316166E1,9.941612E1,6.586966E2],"tree_param":{"num_deleted":"0","num_feature":"8","num_nodes":"97","size_leaf_vector":"1"}},{"base_weights":[2.931339E-4,-2.2954664E-1,9.163188E-1,-2.9085025E-1,7.662604E-1,1.4601703E0,7.6005626E-1,2.1554077E-1,-4.3434453E-1,6.0824233E-1,1.2214404E0,1.475722E0,-1.5406934E-2,8.839359E-2,8.815717E-1,4.5309785E-1,-5.767198E-1,-3.1121376E-1,-7.2604823E-1,3.1846946E-1,8.357713E-1,-1.0993482E-2,1.2378359E0,1.5061188E0,7.7481836E-1,5.7191294E-1,-1.9896981E-1,7.330225E-1,1.2325058E0,1.0438912E0,3.5371432E-1,-7.552608E-1,-7.4311644E-2,-3.5346687E-1,5.250949E-1,-8.789723E-1,-1.3388641E-1,4.0316772E-1,-1.7261667E-2,1.1043913E0,4.998656E-1,1.2544003E0,-1.0993482E-2,1.522837E0,1.2483468E0,-1.6725654E-2,1.4322519E0,-1.9251658E-2,7.9592884E-1,3.9010772E-1,-7.80646E-1,1.3336242E0,5.917069E-1,2.273596E-1,1.2989098E0,1.0849375E-2,-1.586488E-2,3.7566514E-3,-1.9489352E-2,-6.591881E-3,-1.819744E-2,2.0265945E-3,-8.509412E-3,2.9456757E-3,-3.9604106E-3,4.0743276E-3,1.6155249E-2,-9.702504E-3,-2.0774836E-3,-7.6315096E-3,2.3044273E-3,4.8071453E-3,-1.705746E-2,1.13576185E-2,-1.3409706E-2,-1.690833E-2,6.2559564E-3,6.880747E-3,1.3031123E-2,1.53531395E-2,1.2561632E-2,1.3317106E-2,-1.1699E-2,1.5784424E-2,9.502662E-3,1.3183773E-2,4.4791726E-3,-5.152588E-3,6.8207025E-3,-2.1206124E-2,-3.270357E-3,-1.9880954E-2,1.398318E-2,1.6192918E-3,7.3096966E-3,1.1393207E-2,-7.596512E-3,1.2071112E-2,1.454881E-2],"categories":[],"categories_nodes":[],"categories_segments":[],"categories_sizes":[],"default_left":[0,0,0,0,0,0,0,0,0,0,0,0,0,0,0,0,0,0,0,0,0,0,0,0,0,0,0,0,0,0,0,0,0,0,0,0,0,0,0,0,0,0,0,0,0,0,0,0,0,0,0,0,0,0,0,0,0,0,0,0,0,0,0,0,0,0,0,0,0,0,0,0,0,0,0,0,0,0,0,0,0,0,0,0,0,0,0,0,0,0,0,0,0,0,0,0,0,0,0],"id":16,"left_children":[1,3,5,7,9,11,13,15,17,19,21,23,-1,25,27,29,31,33,35,37,39,-1,41,43,45,47,49,51,53,55,57,59,61,63,65,67,69,71,-1,73,75,77,-1,79,81,-1,83,-1,85,87,89,91,93,95,97,-1,-1,-1,-1,-1,-1,-1,-1,-1,-1,-1,-1,-1,-1,-1,-1,-1,-1,-1,-1,-1,-1,-1,-1,-1,-1,-1,-1,-1,-1,-1,-1,-1,-1,-1,-1,-1,-1,-1,-1,-1,-1,-1,-1],"loss_changes":[4.3378154E3,1.00570325E3,3.5009888E2,1.1275714E3,6.797864E1,4.5269775E1,2.6210608E2,6.4518164E2,4.3404126E2,4.6625732E1,1.0691498E1,1.8371338E1,0E0,6.86483E1,1.4089868E2,